{"learner":{"attributes":{"best_iteration":"499","best_score":"1299.3223661215466","scikit_learn":"{\"_estimator_type\": \"regressor\"}"},"feature_names":["Store","DayOfWeek","Promo","SchoolHoliday","StoreType","Assortment","CompetitionDistance","Promo2","Year","Month","Day","WeekOfYear","IsWeekend","Quarter","CompetitionOpenMonths","IsPromoMonth"],"feature_types":["int","int","int","int","int","int","float","int","int","int","int","int","int","int","float","int"],"gradient_booster":{"model":{"cats":{"enc":[],"feature_segments":[],"sorted_idx":[]},"gbtree_model_param":{"num_parallel_tree":"1","num_trees":"500"},"iteration_indptr":[0,1,2,3,4,5,6,7,8,9,10,11,12,13,14,15,16,17,18,19,20,21,22,23,24,25,26,27,28,29,30,31,32,33,34,35,36,37,38,39,40,41,42,43,44,45,46,47,48,49,50,51,52,53,54,55,56,57,58,59,60,61,62,63,64,65,66,67,68,69,70,71,72,73,74,75,76,77,78,79,80,81,82,83,84,85,86,87,88,89,90,91,92,93,94,95,96,97,98,99,100,101,102,103,104,105,106,107,108,109,110,111,112,113,114,115,116,117,118,119,120,121,122,123,124,125,126,127,128,129,130,131,132,133,134,135,136,137,138,139,140,141,142,143,144,145,146,147,148,149,150,151,152,153,154,155,156,157,158,159,160,161,162,163,164,165,166,167,168,169,170,171,172,173,174,175,176,177,178,179,180,181,182,183,184,185,186,187,188,189,190,191,192,193,194,195,196,197,198,199,200,201,202,203,204,205,206,207,208,209,210,211,212,213,214,215,216,217,218,219,220,221,222,223,224,225,226,227,228,229,230,231,232,233,234,235,236,237,238,239,240,241,242,243,244,245,246,247,248,249,250,251,252,253,254,255,256,257,258,259,260,261,262,263,264,265,266,267,268,269,270,271,272,273,274,275,276,277,278,279,280,281,282,283,284,285,286,287,288,289,290,291,292,293,294,295,296,297,298,299,300,301,302,303,304,305,306,307,308,309,310,311,312,313,314,315,316,317,318,319,320,321,322,323,324,325,326,327,328,329,330,331,332,333,334,335,336,337,338,339,340,341,342,343,344,345,346,347,348,349,350,351,352,353,354,355,356,357,358,359,360,361,362,363,364,365,366,367,368,369,370,371,372,373,374,375,376,377,378,379,380,381,382,383,384,385,386,387,388,389,390,391,392,393,394,395,396,397,398,399,400,401,402,403,404,405,406,407,408,409,410,411,412,413,414,415,416,417,418,419,420,421,422,423,424,425,426,427,428,429,430,431,432,433,434,435,436,437,438,439,440,441,442,443,444,445,446,447,448,449,450,451,452,453,454,455,456,457,458,459,460,461,462,463,464,465,466,467,468,469,470,471,472,473,474,475,476,477,478,479,480,481,482,483,484,485,486,487,488,489,490,491,492,493,494,495,496,497,498,499,500],"tree_info":[0,0,0,0,0,0,0,0,0,0,0,0,0,0,0,0,0,0,0,0,0,0,0,0,0,0,0,0,0,0,0,0,0,0,0,0,0,0,0,0,0,0,0,0,0,0,0,0,0,0,0,0,0,0,0,0,0,0,0,0,0,0,0,0,0,0,0,0,0,0,0,0,0,0,0,0,0,0,0,0,0,0,0,0,0,0,0,0,0,0,0,0,0,0,0,0,0,0,0,0,0,0,0,0,0,0,0,0,0,0,0,0,0,0,0,0,0,0,0,0,0,0,0,0,0,0,0,0,0,0,0,0,0,0,0,0,0,0,0,0,0,0,0,0,0,0,0,0,0,0,0,0,0,0,0,0,0,0,0,0,0,0,0,0,0,0,0,0,0,0,0,0,0,0,0,0,0,0,0,0,0,0,0,0,0,0,0,0,0,0,0,0,0,0,0,0,0,0,0,0,0,0,0,0,0,0,0,0,0,0,0,0,0,0,0,0,0,0,0,0,0,0,0,0,0,0,0,0,0,0,0,0,0,0,0,0,0,0,0,0,0,0,0,0,0,0,0,0,0,0,0,0,0,0,0,0,0,0,0,0,0,0,0,0,0,0,0,0,0,0,0,0,0,0,0,0,0,0,0,0,0,0,0,0,0,0,0,0,0,0,0,0,0,0,0,0,0,0,0,0,0,0,0,0,0,0,0,0,0,0,0,0,0,0,0,0,0,0,0,0,0,0,0,0,0,0,0,0,0,0,0,0,0,0,0,0,0,0,0,0,0,0,0,0,0,0,0,0,0,0,0,0,0,0,0,0,0,0,0,0,0,0,0,0,0,0,0,0,0,0,0,0,0,0,0,0,0,0,0,0,0,0,0,0,0,0,0,0,0,0,0,0,0,0,0,0,0,0,0,0,0,0,0,0,0,0,0,0,0,0,0,0,0,0,0,0,0,0,0,0,0,0,0,0,0,0,0,0,0,0,0,0,0,0,0,0,0,0,0,0,0,0,0,0,0,0,0,0,0,0,0,0,0,0,0,0,0,0,0,0,0,0,0,0,0,0,0,0,0,0,0,0,0,0,0,0,0,0,0,0,0,0,0,0,0,0,0,0,0,0,0,0,0,0,0,0,0,0,0,0],"trees":[{"base_weights":[-3.0984092E0,1.2528412E3,-2.4728665E2,1.1048029E3,6.0370107E3,-4.282762E1,-1.0217568E3,2.7078206E3,7.787628E2,5.2334834E3,6.9304917E3,-1.3663728E2,1.6943403E3,-1.6395857E3,-3.122235E2,3.2709683E3,2.1471826E3,5.69225E2,2.721698E3,6.0637075E3,4.373931E3,9.827632E3,6.569608E3,2.5533324E2,-5.2794916E2,2.0603228E3,-1.2266383E3,-3.5009335E2,-2.0200751E3,2.8016365E3,-5.3316034E2,4.6505557E3,3.0187502E3,4.0241008E3,1.8746743E3,1.0245775E3,1.09720665E2,3.1119407E3,1.0247095E3,7.9787856E3,5.657926E3,4.0108892E3,5.3762324E3,1.0309077E4,3.4194778E3,6.229369E3,8.6435E3,8.9539655E2,-3.7430637E1,6.038043E2,-6.976048E2,1.0071475E3,3.9483157E3,-2.188245E3,4.9228394E2,-4.3296634E2,5.392665E2,-2.4308933E3,-1.3724458E3,7.3685615E3,1.8173499E3,-6.4810144E2,9.7147644E2,1.7300325E2,3.3437506E2,1.1601387E2,1.7319113E2,2.7637772E2,1.7800255E2,5.756444E1,1.1732623E2,7.974272E1,3.0814726E1,6.634057E1,-5.3240504E0,7.66593E1,1.8019865E2,-2.5625618E0,1.1515918E2,4.688062E2,3.225324E2,2.5034407E2,3.4172885E2,1.4322357E2,2.1709917E2,2.788578E2,1.1830657E2,1.5095253E2,5.32421E2,-1.8525814E1,2.1514336E2,3.593404E2,2.6558652E2,4.983956E2,3.5187003E2,9.393869E0,1.1316518E2,3.226431E1,-1.1301506E1,-1.8506702E1,4.8919083E1,-4.0890553E1,1.9607412E1,1.2415159E2,-6.347762E0,1.6645732E2,2.2993932E2,-1.3039232E2,-8.574299E1,1.7144939E2,1.544122E1,-5.613583E1,3.8710045E1,-1.1483468E2,-2.0536958E2,-7.309378E1,3.5283197E2,1.4837553E2,8.0009247E2,5.9865253E1,4.7237915E2,-5.081628E1,-1.9460108E1,6.394059E1,-1.2037935E1],"categories":[],"categories_nodes":[],"categories_segments":[],"categories_sizes":[],"default_left":[0,0,0,0,0,0,0,0,0,0,0,0,0,0,0,0,0,0,0,0,0,0,0,0,0,0,0,0,0,0,0,0,0,0,0,0,0,0,0,0,0,0,0,0,0,0,0,0,0,0,0,0,0,0,0,0,0,0,0,0,0,0,0,0,0,0,0,0,0,0,0,0,0,0,0,0,0,0,0,0,0,0,0,0,0,0,0,0,0,0,0,0,0,0,0,0,0,0,0,0,0,0,0,0,0,0,0,0,0,0,0,0,0,0,0,0,0,0,0,0,0,0,0,0,0],"id":0,"left_children":[1,3,5,7,9,11,13,15,17,19,21,23,25,27,29,31,33,35,37,39,41,43,45,47,49,51,53,55,57,59,61,63,65,67,69,71,73,75,77,79,81,83,85,87,89,91,93,95,97,99,101,103,105,107,109,111,-1,113,115,117,119,121,123,-1,-1,-1,-1,-1,-1,-1,-1,-1,-1,-1,-1,-1,-1,-1,-1,-1,-1,-1,-1,-1,-1,-1,-1,-1,-1,-1,-1,-1,-1,-1,-1,-1,-1,-1,-1,-1,-1,-1,-1,-1,-1,-1,-1,-1,-1,-1,-1,-1,-1,-1,-1,-1,-1,-1,-1,-1,-1,-1,-1,-1,-1],"loss_changes":[1.6560598E11,6.224624E10,7.158692E10,4.455937E10,1.8576425E9,5.8286612E10,4.139172E10,4.5425295E9,2.8843614E10,9.67553E8,1.2381676E9,5.2049334E10,1.9592446E10,2.4763277E10,3.0238302E10,2.4867308E9,3.6873564E9,1.3381816E10,4.564259E9,5.0349466E8,2.2878413E8,3.8433178E8,7.300956E8,3.1767634E10,3.2606118E10,3.2376906E10,3.374702E9,1.0618087E10,1.0365731E10,1.3076525E10,7.098276E9,2.6661458E9,1.8817434E9,6.186967E8,2.151088E9,7.478352E9,8.376846E9,4.349985E9,1.7760022E9,1.978921E8,4.146852E8,1.8076518E8,9.56672E7,2.7955302E8,3.842273E7,8.035123E8,2.5743053E8,5.149343E10,1.4978029E10,8.0766423E9,1.9345302E10,1.7499943E10,2.3331308E9,2.5553869E8,3.9385683E8,9.507164E9,0E0,5.355356E9,1.1414718E10,1.9558214E10,1.1329102E10,3.6344596E9,1.0855828E9,0E0,0E0,0E0,0E0,0E0,0E0,0E0,0E0,0E0,0E0,0E0,0E0,0E0,0E0,0E0,0E0,0E0,0E0,0E0,0E0,0E0,0E0,0E0,0E0,0E0,0E0,0E0,0E0,0E0,0E0,0E0,0E0,0E0,0E0,0E0,0E0,0E0,0E0,0E0,0E0,0E0,0E0,0E0,0E0,0E0,0E0,0E0,0E0,0E0,0E0,0E0,0E0,0E0,0E0,0E0,0E0,0E0,0E0,0E0,0E0,0E0,0E0],"parents":[2147483647,0,0,1,1,2,2,3,3,4,4,5,5,6,6,7,7,8,8,9,9,10,10,11,11,12,12,13,13,14,14,15,15,16,16,17,17,18,18,19,19,20,20,21,21,22,22,23,23,24,24,25,25,26,26,27,27,28,28,29,29,30,30,31,31,32,32,33,33,34,34,35,35,36,36,37,37,38,38,39,39,40,40,41,41,42,42,43,43,44,44,45,45,46,46,47,47,48,48,49,49,50,50,51,51,52,52,53,53,54,54,55,55,57,57,58,58,59,59,60,60,61,61,62,62],"right_children":[2,4,6,8,10,12,14,16,18,20,22,24,26,28,30,32,34,36,38,40,42,44,46,48,50,52,54,56,58,60,62,64,66,68,70,72,74,76,78,80,82,84,86,88,90,92,94,96,98,100,102,104,106,108,110,112,-1,114,116,118,120,122,124,-1,-1,-1,-1,-1,-1,-1,-1,-1,-1,-1,-1,-1,-1,-1,-1,-1,-1,-1,-1,-1,-1,-1,-1,-1,-1,-1,-1,-1,-1,-1,-1,-1,-1,-1,-1,-1,-1,-1,-1,-1,-1,-1,-1,-1,-1,-1,-1,-1,-1,-1,-1,-1,-1,-1,-1,-1,-1,-1,-1,-1,-1],"split_conditions":[1E0,5.1E1,5E0,6E0,2E0,4.9E1,1E0,1E0,2.9E1,1E0,3.5E2,1E0,2.4E1,4.1E2,2E0,4.4E2,2.9E2,1E0,3.2E1,2.9E2,3.97E3,1.041E3,1.527E4,1.32E3,2.9E2,1.4E1,2.5E1,4E2,1E0,2.64E2,4.8E1,1E0,2.014E3,1E2,2.014E3,1.94E3,3.3E2,2E0,2.014E3,2.014E3,3.76E3,2.55E2,2.715E4,4E1,1E2,1E0,2.014E3,1E0,8E0,3.03E2,1.404E4,6E0,1E0,1E0,2.7E1,1E0,5.392665E2,1.801E4,1.11E3,2.6E2,2E0,1E0,5.2E1,1.7300325E2,3.3437506E2,1.1601387E2,1.7319113E2,2.7637772E2,1.7800255E2,5.756444E1,1.1732623E2,7.974272E1,3.0814726E1,6.634057E1,-5.3240504E0,7.66593E1,1.8019865E2,-2.5625618E0,1.1515918E2,4.688062E2,3.225324E2,2.5034407E2,3.4172885E2,1.4322357E2,2.1709917E2,2.788578E2,1.1830657E2,1.5095253E2,5.32421E2,-1.8525814E1,2.1514336E2,3.593404E2,2.6558652E2,4.983956E2,3.5187003E2,9.393869E0,1.1316518E2,3.226431E1,-1.1301506E1,-1.8506702E1,4.8919083E1,-4.0890553E1,1.9607412E1,1.2415159E2,-6.347762E0,1.6645732E2,2.2993932E2,-1.3039232E2,-8.574299E1,1.7144939E2,1.544122E1,-5.613583E1,3.8710045E1,-1.1483468E2,-2.0536958E2,-7.309378E1,3.5283197E2,1.4837553E2,8.0009247E2,5.9865253E1,4.7237915E2,-5.081628E1,-1.9460108E1,6.394059E1,-1.2037935E1],"split_indices":[1,11,1,10,5,11,4,7,10,3,6,7,10,6,4,6,6,7,11,6,6,0,6,6,6,10,10,6,5,0,11,5,8,6,8,6,6,11,8,8,6,0,6,6,6,7,8,5,10,0,6,10,5,5,10,5,0,6,0,0,5,5,11,0,0,0,0,0,0,0,0,0,0,0,0,0,0,0,0,0,0,0,0,0,0,0,0,0,0,0,0,0,0,0,0,0,0,0,0,0,0,0,0,0,0,0,0,0,0,0,0,0,0,0,0,0,0,0,0,0,0,0,0,0,0],"split_type":[0,0,0,0,0,0,0,0,0,0,0,0,0,0,0,0,0,0,0,0,0,0,0,0,0,0,0,0,0,0,0,0,0,0,0,0,0,0,0,0,0,0,0,0,0,0,0,0,0,0,0,0,0,0,0,0,0,0,0,0,0,0,0,0,0,0,0,0,0,0,0,0,0,0,0,0,0,0,0,0,0,0,0,0,0,0,0,0,0,0,0,0,0,0,0,0,0,0,0,0,0,0,0,0,0,0,0,0,0,0,0,0,0,0,0,0,0,0,0,0,0,0,0,0,0],"sum_hessian":[5.39984E5,8.7897E4,4.52087E5,8.526E4,2.637E3,3.57665E5,9.4422E4,1.4409E4,7.0851E4,1.392E3,1.245E3,3.39341E5,1.8324E4,5.0472E4,4.395E4,7.186E3,7.223E3,6.3955E4,6.896E3,7.05E2,6.87E2,1.35E2,1.11E3,1.69528E5,1.69813E5,1.6284E4,2.04E3,1.15E4,3.8972E4,2.911E3,4.1039E4,1.108E3,6.078E3,9.14E2,6.309E3,3.2122E4,3.1833E4,5.606E3,1.29E3,1.2E2,5.85E2,5.08E2,1.79E2,1.25E2,1E1,9.57E2,1.53E2,5.3205E4,1.16323E5,2.2137E4,1.47676E5,1.0454E4,5.83E3,1.308E3,7.32E2,1.1416E4,8.4E1,2.3844E4,1.5128E4,5.15E2,2.396E3,3.8127E4,2.912E3,7.01E2,4.07E2,2.368E3,3.71E3,2.13E2,7.01E2,2.492E3,3.817E3,1.3401E4,1.8721E4,4.801E3,2.7032E4,1.333E3,4.273E3,7.01E2,5.89E2,6E1,6E1,3.8E2,2.05E2,1.16E2,3.92E2,1.67E2,1.2E1,6E0,1.19E2,2E0,8E0,4.65E2,4.92E2,8.1E1,7.2E1,3.5068E4,1.8137E4,2.5178E4,9.1145E4,6.149E3,1.5988E4,1.33005E5,1.4671E4,4.542E3,5.912E3,2.99E3,2.84E3,6.91E2,6.17E2,4.2E1,6.9E2,7.265E3,4.151E3,2.2079E4,1.765E3,1.497E4,1.58E2,3.42E2,1.73E2,2.217E3,1.79E2,1.5739E4,2.2388E4,2.323E3,5.89E2],"tree_param":{"num_deleted":"0","num_feature":"16","num_nodes":"125","size_leaf_vector":"1"}},{"base_weights":[1.3402612E0,1.1944806E3,-2.304719E2,1.0562902E3,5.7108193E3,-3.3331488E2,1.2014949E3,2.6937788E3,7.796841E2,4.85957E3,6.669198E3,-1.4115889E2,-1.0657451E3,1.7268229E3,1.296675E2,4.2147217E3,2.5041777E3,5.887749E2,2.6118503E3,5.5767217E3,4.0882302E3,9.668779E3,6.286068E3,2.3274506E2,-5.14029E2,-1.6500663E3,-3.9630386E2,8.100097E2,3.37129E3,-2.05457E3,4.62179E2,7.8396E2,4.3827593E3,3.092769E3,1.9026575E3,3.098973E3,5.1203546E2,3.4745974E3,1.1977023E3,7.129587E3,5.2921797E3,3.7916936E3,5.5064385E3,9.06882E3,1.6381374E4,6.5897407E3,4.1610146E3,7.254025E2,-1.19081154E2,4.6579428E2,-6.89564E2,-4.635533E2,-2.0002618E3,2.5676758E3,-6.0514343E2,2.3979468E3,-5.148264E1,3.7140164E3,1.879818E3,-2.428669E3,-1.6490068E3,-1.025723E2,1.2347078E3,1.07169556E2,1.843778E1,2.0640791E2,3.170034E2,1.4550526E2,2.2693901E2,8.6699356E1,1.7475114E2,2.3207515E2,1.4649962E2,-1.7603516E1,3.856582E1,1.2384468E2,1.9913924E2,1.3712303E2,5.0295944E1,4.228741E2,2.7684506E2,2.341864E2,3.2129672E2,1.05827065E2,1.9618428E2,2.890101E2,1.0406386E2,4.7367334E2,1.3329442E2,9.03632E2,3.205435E2,3.1268646E2,4.1653717E2,1.6904729E2,2.7203613E2,5.993164E0,8.98459E1,2.6829905E1,-1.5220334E1,-2.0956854E1,4.3348343E1,-4.038923E1,1.7852654E1,-2.6624195E1,4.9989337E2,-1.17979164E2,-7.16698E1,3.4672437E2,7.907714E1,1.1016082E2,-3.1767202E1,1.9129903E2,1.03820946E2,6.853301E1,-1.190927E1,1.5413037E2,2.1921825E2,5.6458546E1,1.3867345E2,-1.502596E2,-1.063053E2,-6.707159E1,-9.840648E1,-2.722323E1,4.8294083E1,7.852192E1,-2.2133444E1],"categories":[],"categories_nodes":[],"categories_segments":[],"categories_sizes":[],"default_left":[0,0,0,0,0,0,0,0,0,0,0,0,0,0,0,0,0,0,0,0,0,0,0,0,0,0,0,0,0,0,0,0,0,0,0,0,0,0,0,0,0,0,0,0,0,0,0,0,0,0,0,0,0,0,0,0,0,0,0,0,0,0,0,0,0,0,0,0,0,0,0,0,0,0,0,0,0,0,0,0,0,0,0,0,0,0,0,0,0,0,0,0,0,0,0,0,0,0,0,0,0,0,0,0,0,0,0,0,0,0,0,0,0,0,0,0,0,0,0,0,0,0,0,0,0,0,0],"id":1,"left_children":[1,3,5,7,9,11,13,15,17,19,21,23,25,27,29,31,33,35,37,39,41,43,45,47,49,51,53,55,57,59,61,63,65,67,69,71,73,75,77,79,81,83,85,87,89,91,93,95,97,99,101,103,105,107,109,111,113,115,117,119,121,123,125,-1,-1,-1,-1,-1,-1,-1,-1,-1,-1,-1,-1,-1,-1,-1,-1,-1,-1,-1,-1,-1,-1,-1,-1,-1,-1,-1,-1,-1,-1,-1,-1,-1,-1,-1,-1,-1,-1,-1,-1,-1,-1,-1,-1,-1,-1,-1,-1,-1,-1,-1,-1,-1,-1,-1,-1,-1,-1,-1,-1,-1,-1,-1,-1],"loss_changes":[1.4958931E11,5.4906716E10,6.669205E10,3.8667133E10,2.0985119E9,5.9465114E10,1.7085862E10,3.5471032E9,2.5545503E10,7.4444595E8,1.3481779E9,4.6664024E10,3.4348261E10,3.0699442E10,7.2507177E9,7.840563E8,3.8787482E9,1.2740387E10,8.404431E9,2.786345E8,2.6173133E8,4.0317747E8,6.7597926E8,2.8967311E10,2.8823826E10,1.948074E10,2.53346E10,1.7888035E10,3.718914E9,1.9611494E8,3.780114E9,3.5898336E7,6.2265754E8,1.4511514E9,1.4520873E9,4.978094E8,1.4380897E10,2.1601853E9,7.7136614E8,1.8158336E8,3.9001293E8,1.1529421E8,9.486592E7,3.0638387E8,5.276672E7,5.048156E8,1.2036352E8,4.5176246E10,1.1847422E10,9.039632E9,1.7585529E10,7.7111224E9,7.370277E9,1.1590089E10,3.2440955E9,2.1036974E9,2.251388E9,2.4947507E9,9.1186176E8,1.129239E8,5.9785984E7,2.3640668E9,2.061249E9,0E0,0E0,0E0,0E0,0E0,0E0,0E0,0E0,0E0,0E0,0E0,0E0,0E0,0E0,0E0,0E0,0E0,0E0,0E0,0E0,0E0,0E0,0E0,0E0,0E0,0E0,0E0,0E0,0E0,0E0,0E0,0E0,0E0,0E0,0E0,0E0,0E0,0E0,0E0,0E0,0E0,0E0,0E0,0E0,0E0,0E0,0E0,0E0,0E0,0E0,0E0,0E0,0E0,0E0,0E0,0E0,0E0,0E0,0E0,0E0,0E0,0E0,0E0,0E0],"parents":[2147483647,0,0,1,1,2,2,3,3,4,4,5,5,6,6,7,7,8,8,9,9,10,10,11,11,12,12,13,13,14,14,15,15,16,16,17,17,18,18,19,19,20,20,21,21,22,22,23,23,24,24,25,25,26,26,27,27,28,28,29,29,30,30,31,31,32,32,33,33,34,34,35,35,36,36,37,37,38,38,39,39,40,40,41,41,42,42,43,43,44,44,45,45,46,46,47,47,48,48,49,49,50,50,51,51,52,52,53,53,54,54,55,55,56,56,57,57,58,58,59,59,60,60,61,61,62,62],"right_children":[2,4,6,8,10,12,14,16,18,20,22,24,26,28,30,32,34,36,38,40,42,44,46,48,50,52,54,56,58,60,62,64,66,68,70,72,74,76,78,80,82,84,86,88,90,92,94,96,98,100,102,104,106,108,110,112,114,116,118,120,122,124,126,-1,-1,-1,-1,-1,-1,-1,-1,-1,-1,-1,-1,-1,-1,-1,-1,-1,-1,-1,-1,-1,-1,-1,-1,-1,-1,-1,-1,-1,-1,-1,-1,-1,-1,-1,-1,-1,-1,-1,-1,-1,-1,-1,-1,-1,-1,-1,-1,-1,-1,-1,-1,-1,-1,-1,-1,-1,-1,-1,-1,-1,-1,-1,-1],"split_conditions":[1E0,5.1E1,4.8E1,5E0,2E0,5E0,2.4E1,2.6E2,2.9E1,1.7E1,3.5E2,1E0,1E0,1.5E1,2.5E1,4E1,1E0,3E0,8E0,2.9E2,7.28E3,3.4E2,1E0,1.94E3,3.3E2,4.1E2,2E0,6E0,5E0,1E0,2.014E3,5.19E2,1.2E1,1.2E1,1.43E4,2.3E2,1.2E1,2.014E3,2.6E2,2.014E3,3.76E3,8.9E1,2.249E4,1.041E3,2.55E2,1.527E4,6.85E2,1E0,8E0,3.03E2,1.404E4,4E2,1E0,2.64E2,7E1,4.4E2,2.6E2,1E0,1E0,1.07E3,1E0,2.9E1,1.2E1,1.07169556E2,1.843778E1,2.0640791E2,3.170034E2,1.4550526E2,2.2693901E2,8.6699356E1,1.7475114E2,2.3207515E2,1.4649962E2,-1.7603516E1,3.856582E1,1.2384468E2,1.9913924E2,1.3712303E2,5.0295944E1,4.228741E2,2.7684506E2,2.341864E2,3.2129672E2,1.05827065E2,1.9618428E2,2.890101E2,1.0406386E2,4.7367334E2,1.3329442E2,9.03632E2,3.205435E2,3.1268646E2,4.1653717E2,1.6904729E2,2.7203613E2,5.993164E0,8.98459E1,2.6829905E1,-1.5220334E1,-2.0956854E1,4.3348343E1,-4.038923E1,1.7852654E1,-2.6624195E1,4.9989337E2,-1.17979164E2,-7.16698E1,3.4672437E2,7.907714E1,1.1016082E2,-3.1767202E1,1.9129903E2,1.03820946E2,6.853301E1,-1.190927E1,1.5413037E2,2.1921825E2,5.6458546E1,1.3867345E2,-1.502596E2,-1.063053E2,-6.707159E1,-9.840648E1,-2.722323E1,4.8294083E1,7.852192E1,-2.2133444E1],"split_indices":[1,11,11,10,5,1,10,6,10,10,6,7,4,10,10,6,7,11,9,6,6,6,15,6,6,6,4,10,1,5,8,0,9,9,6,6,11,8,6,8,6,0,6,0,0,6,0,5,10,0,6,6,5,0,6,6,6,5,4,6,7,10,9,0,0,0,0,0,0,0,0,0,0,0,0,0,0,0,0,0,0,0,0,0,0,0,0,0,0,0,0,0,0,0,0,0,0,0,0,0,0,0,0,0,0,0,0,0,0,0,0,0,0,0,0,0,0,0,0,0,0,0,0,0,0,0,0],"split_type":[0,0,0,0,0,0,0,0,0,0,0,0,0,0,0,0,0,0,0,0,0,0,0,0,0,0,0,0,0,0,0,0,0,0,0,0,0,0,0,0,0,0,0,0,0,0,0,0,0,0,0,0,0,0,0,0,0,0,0,0,0,0,0,0,0,0,0,0,0,0,0,0,0,0,0,0,0,0,0,0,0,0,0,0,0,0,0,0,0,0,0,0,0,0,0,0,0,0,0,0,0,0,0,0,0,0,0,0,0,0,0,0,0,0,0,0,0,0,0,0,0,0,0,0,0,0,0],"sum_hessian":[5.40843E5,8.7984E4,4.52859E5,8.5373E4,2.611E3,4.22515E5,3.0344E4,1.2336E4,7.3037E4,1.386E3,1.225E3,3.34705E5,8.781E4,2.0363E4,9.981E3,1.365E3,1.0971E4,6.6146E4,6.891E3,7.15E2,6.71E2,1.36E2,1.089E3,1.67121E5,1.67584E5,4.6885E4,4.0925E4,1.3075E4,7.288E3,1.318E3,8.663E3,6.4E1,1.301E3,5.543E3,5.428E3,1.961E3,6.4185E4,4.279E3,2.612E3,1.07E2,6.08E2,5.58E2,1.13E2,1.27E2,9E0,9.51E2,1.38E2,6.9625E4,9.7496E4,2.5461E4,1.42123E5,1.0685E4,3.62E4,2.693E3,3.8232E4,4.598E3,8.477E3,5.925E3,1.363E3,6.83E2,6.35E2,5.005E3,3.658E3,1.4E1,5E1,1.154E3,1.47E2,4.924E3,6.19E2,4.91E3,5.18E2,1.91E2,1.77E3,1.4814E4,4.9371E4,1.446E3,2.833E3,2.87E2,2.325E3,5.6E1,5.1E1,3.99E2,2.09E2,4.2E1,5.16E2,1.04E2,9E0,1.19E2,8E0,7E0,2E0,8.01E2,1.5E2,8.8E1,5E1,4.4486E4,2.5139E4,2.1484E4,7.6012E4,7.942E3,1.7519E4,1.27699E5,1.4424E4,1.0616E4,6.9E1,2.2154E4,1.4046E4,4.95E2,2.198E3,4.06E2,3.7826E4,8.43E2,3.755E3,9.83E2,7.494E3,3.054E3,2.871E3,7.42E2,6.21E2,2.32E2,4.51E2,3.26E2,3.09E2,3.541E3,1.464E3,3.048E3,6.1E2],"tree_param":{"num_deleted":"0","num_feature":"16","num_nodes":"127","size_leaf_vector":"1"}},{"base_weights":[2.3204296E0,1.1364972E3,-2.1882062E2,1.0035377E3,5.460961E3,-3.46957E1,-9.1596576E2,2.6035884E3,7.347854E2,4.7045054E3,6.3057397E3,3.2707928E2,-3.9807727E2,-1.4150692E3,-3.7040295E2,3.1337476E3,2.075242E3,5.5428186E2,2.4732957E3,5.493078E3,3.8778708E3,8.860151E3,5.902674E3,1.2884589E3,1.5289618E2,5.6663403E2,-5.704043E2,-1.485972E3,3.90089E3,5.337705E2,-7.7124426E2,4.456394E3,2.8890212E3,3.9915383E3,1.7904973E3,9.774683E2,1.326948E2,2.8419023E3,8.7949567E2,6.1014272E3,4.7152583E3,3.622223E3,5.1220947E3,1.0872074E4,7.18204E3,6.1726396E3,3.9293376E3,4.9099063E2,2.7548772E3,5.3465546E1,1.5137961E3,-3.0473868E2,9.6065015E2,-6.880484E2,4.70986E2,-1.4368466E3,-4.2874556E3,1.2238642E4,9.459657E2,2.162372E3,-6.1604944E2,-6.964956E2,-3.189233E3,1.6199356E2,3.2690442E2,1.3706764E2,2.0555237E2,1.2283938E2,2.3010999E2,8.0943306E1,1.6775581E2,7.5078E1,3.0327381E1,6.397282E1,-3.6285408E0,6.796313E1,1.6466447E2,-5.555184E0,1.0215688E2,4.3086667E2,2.8516898E2,1.7228856E2,2.5119969E2,2.5581262E2,1.7231232E2,2.7217038E2,1.10351006E2,6.516823E2,3.7266626E2,7.210909E2,3.262267E2,2.9301007E2,3.8269003E2,3.4134906E2,1.2506244E2,1.1280601E1,1.0288893E2,2.2395598E2,5.693232E1,3.617525E1,-6.768411E0,1.0064243E2,1.9440142E1,-3.7261078E1,3.2212997E1,3.7982184E2,4.129055E1,-3.6712128E1,7.29941E1,2.9250113E1,-1.1812917E2,-7.611746E1,-1.6072706E1,-2.2508293E2,-1.0388682E2,2.015098E2,1.00116815E3,1.8864491E2,-3.415369E1,8.753695E1,3.5227182E2,2.2678377E2,-3.600074E1,-4.0068733E1,3.187419E1,4.5706352E1,-2.026721E2],"categories":[],"categories_nodes":[],"categories_segments":[],"categories_sizes":[],"default_left":[0,0,0,0,0,0,0,0,0,0,0,0,0,0,0,0,0,0,0,0,0,0,0,0,0,0,0,0,0,0,0,0,0,0,0,0,0,0,0,0,0,0,0,0,0,0,0,0,0,0,0,0,0,0,0,0,0,0,0,0,0,0,0,0,0,0,0,0,0,0,0,0,0,0,0,0,0,0,0,0,0,0,0,0,0,0,0,0,0,0,0,0,0,0,0,0,0,0,0,0,0,0,0,0,0,0,0,0,0,0,0,0,0,0,0,0,0,0,0,0,0,0,0,0,0,0,0],"id":2,"left_children":[1,3,5,7,9,11,13,15,17,19,21,23,25,27,29,31,33,35,37,39,41,43,45,47,49,51,53,55,57,59,61,63,65,67,69,71,73,75,77,79,81,83,85,87,89,91,93,95,97,99,101,103,105,107,109,111,113,115,117,119,121,123,125,-1,-1,-1,-1,-1,-1,-1,-1,-1,-1,-1,-1,-1,-1,-1,-1,-1,-1,-1,-1,-1,-1,-1,-1,-1,-1,-1,-1,-1,-1,-1,-1,-1,-1,-1,-1,-1,-1,-1,-1,-1,-1,-1,-1,-1,-1,-1,-1,-1,-1,-1,-1,-1,-1,-1,-1,-1,-1,-1,-1,-1,-1,-1,-1],"loss_changes":[1.3559529E11,5.071392E10,5.8072388E10,3.6799398E10,1.6516465E9,4.7049196E10,2.5737347E10,3.4407793E9,2.2992855E10,8.860897E8,1.2243968E9,3.0031706E10,2.9683356E10,1.8611511E10,1.6368114E10,1.9748823E9,3.357911E9,1.1843437E10,4.0464507E9,3.0719386E8,1.9869696E8,4.857467E8,5.4789734E8,3.2168288E10,2.054536E10,9.291281E9,1.8559758E10,6.698066E9,1.6002748E10,2.597802E10,5.6531743E9,2.4023532E9,9.243853E8,7.356508E8,1.436885E9,6.43925E9,7.828247E9,3.7412782E9,1.49413E9,3.4642534E8,1.0653952E8,1.3222912E8,9.476454E7,4.49706E8,3.5336294E8,3.9154483E8,5.2915213E8,7.40895E9,2.6998735E10,1.790316E10,5.8032906E9,3.5231148E9,1.666765E10,1.3506454E10,4.9692764E9,4.5654016E9,3.8776934E8,1.0782384E10,2.2176712E9,1.1527252E10,4.3587717E9,4.2470922E9,3.330003E9,0E0,0E0,0E0,0E0,0E0,0E0,0E0,0E0,0E0,0E0,0E0,0E0,0E0,0E0,0E0,0E0,0E0,0E0,0E0,0E0,0E0,0E0,0E0,0E0,0E0,0E0,0E0,0E0,0E0,0E0,0E0,0E0,0E0,0E0,0E0,0E0,0E0,0E0,0E0,0E0,0E0,0E0,0E0,0E0,0E0,0E0,0E0,0E0,0E0,0E0,0E0,0E0,0E0,0E0,0E0,0E0,0E0,0E0,0E0,0E0,0E0,0E0,0E0,0E0],"parents":[2147483647,0,0,1,1,2,2,3,3,4,4,5,5,6,6,7,7,8,8,9,9,10,10,11,11,12,12,13,13,14,14,15,15,16,16,17,17,18,18,19,19,20,20,21,21,22,22,23,23,24,24,25,25,26,26,27,27,28,28,29,29,30,30,31,31,32,32,33,33,34,34,35,35,36,36,37,37,38,38,39,39,40,40,41,41,42,42,43,43,44,44,45,45,46,46,47,47,48,48,49,49,50,50,51,51,52,52,53,53,54,54,55,55,56,56,57,57,58,58,59,59,60,60,61,61,62,62],"right_children":[2,4,6,8,10,12,14,16,18,20,22,24,26,28,30,32,34,36,38,40,42,44,46,48,50,52,54,56,58,60,62,64,66,68,70,72,74,76,78,80,82,84,86,88,90,92,94,96,98,100,102,104,106,108,110,112,114,116,118,120,122,124,126,-1,-1,-1,-1,-1,-1,-1,-1,-1,-1,-1,-1,-1,-1,-1,-1,-1,-1,-1,-1,-1,-1,-1,-1,-1,-1,-1,-1,-1,-1,-1,-1,-1,-1,-1,-1,-1,-1,-1,-1,-1,-1,-1,-1,-1,-1,-1,-1,-1,-1,-1,-1,-1,-1,-1,-1,-1,-1,-1,-1,-1,-1,-1,-1],"split_conditions":[1E0,5.1E1,5E0,5E0,2E0,1E0,1E0,1E0,2.9E1,1E0,4.4E2,4.4E2,3.3E2,6E0,1.42E3,4.4E2,2.9E2,1E0,3.2E1,2.014E3,7.66E3,1E0,1E0,1E0,4.8E1,3.03E2,1.404E4,2.613E4,2.64E2,1E0,6E0,1E0,4.6E1,3.03E2,1.404E4,1.94E3,3.3E2,2E0,2.014E3,2.4E2,2.3E2,1.8E2,2.715E4,5.88E2,7E1,1.527E4,4.9E1,3.4E2,5.24E2,8E0,2.4E1,1E0,3.37E2,5.1E1,2.613E4,4.8E1,1E0,8.9E1,4.28E2,6E0,7E1,4.8E1,2E0,1.6199356E2,3.2690442E2,1.3706764E2,2.0555237E2,1.2283938E2,2.3010999E2,8.0943306E1,1.6775581E2,7.5078E1,3.0327381E1,6.397282E1,-3.6285408E0,6.796313E1,1.6466447E2,-5.555184E0,1.0215688E2,4.3086667E2,2.8516898E2,1.7228856E2,2.5119969E2,2.5581262E2,1.7231232E2,2.7217038E2,1.10351006E2,6.516823E2,3.7266626E2,7.210909E2,3.262267E2,2.9301007E2,3.8269003E2,3.4134906E2,1.2506244E2,1.1280601E1,1.0288893E2,2.2395598E2,5.693232E1,3.617525E1,-6.768411E0,1.0064243E2,1.9440142E1,-3.7261078E1,3.2212997E1,3.7982184E2,4.129055E1,-3.6712128E1,7.29941E1,2.9250113E1,-1.1812917E2,-7.611746E1,-1.6072706E1,-2.2508293E2,-1.0388682E2,2.015098E2,1.00116815E3,1.8864491E2,-3.415369E1,8.753695E1,3.5227182E2,2.2678377E2,-3.600074E1,-4.0068733E1,3.187419E1,4.5706352E1,-2.026721E2],"split_indices":[1,11,1,10,5,7,5,7,10,3,6,6,6,1,6,6,6,7,11,8,6,7,15,5,11,0,6,6,0,7,1,5,11,0,6,6,6,11,8,6,0,6,6,0,6,6,14,6,0,10,10,5,0,11,6,11,7,0,0,1,6,11,5,0,0,0,0,0,0,0,0,0,0,0,0,0,0,0,0,0,0,0,0,0,0,0,0,0,0,0,0,0,0,0,0,0,0,0,0,0,0,0,0,0,0,0,0,0,0,0,0,0,0,0,0,0,0,0,0,0,0,0,0,0,0,0,0],"split_type":[0,0,0,0,0,0,0,0,0,0,0,0,0,0,0,0,0,0,0,0,0,0,0,0,0,0,0,0,0,0,0,0,0,0,0,0,0,0,0,0,0,0,0,0,0,0,0,0,0,0,0,0,0,0,0,0,0,0,0,0,0,0,0,0,0,0,0,0,0,0,0,0,0,0,0,0,0,0,0,0,0,0,0,0,0,0,0,0,0,0,0,0,0,0,0,0,0,0,0,0,0,0,0,0,0,0,0,0,0,0,0,0,0,0,0,0,0,0,0,0,0,0,0,0,0,0,0],"sum_hessian":[5.40621E5,8.821E4,4.52411E5,8.558E4,2.63E3,3.57889E5,9.4522E4,1.2306E4,7.3274E4,1.391E3,1.239E3,1.79341E5,1.78548E5,4.9362E4,4.516E4,6.14E3,6.166E3,6.6383E4,6.891E3,7.09E2,6.82E2,1.66E2,1.073E3,2.7508E4,1.51833E5,2.706E4,1.51488E5,4.8713E4,6.49E2,1.3871E4,3.1289E4,9.56E2,5.184E3,7.96E2,5.37E3,3.3128E4,3.3255E4,5.596E3,1.295E3,3.94E2,3.15E2,5.69E2,1.13E2,7.3E1,9.3E1,9.42E2,1.31E2,1.7819E4,9.689E3,1.41496E5,1.0337E4,8.426E3,1.8634E4,1.36112E5,1.5376E4,4.7875E4,8.38E2,1.69E2,4.8E2,5.74E3,8.131E3,3.0352E4,9.37E2,6.05E2,3.51E2,4.628E3,5.56E2,2.28E2,5.68E2,4.841E3,5.29E2,1.3728E4,1.94E4,5.048E3,2.8207E4,1.307E3,4.289E3,7E2,5.95E2,5.1E1,3.43E2,6.4E1,2.51E2,5.7E1,5.12E2,1.01E2,1.2E1,4.3E1,3E1,6E0,8.7E1,7.82E2,1.6E2,4.2E1,8.9E1,1.5239E4,2.58E3,4.687E3,5.002E3,3.1109E4,1.10387E5,7.16E3,3.177E3,5.755E3,2.671E3,3.7E2,1.8264E4,1.33247E5,2.865E3,1.4782E4,5.94E2,4.4466E4,3.409E3,7.63E2,7.5E1,8.3E1,8.6E1,1.75E2,3.05E2,5.295E3,4.45E2,1.6E2,7.971E3,2.814E4,2.212E3,1.63E2,7.74E2],"tree_param":{"num_deleted":"0","num_feature":"16","num_nodes":"127","size_leaf_vector":"1"}},{"base_weights":[2.6643355E0,1.0763446E3,-2.0639055E2,9.526034E2,5.129926E3,-2.9988907E2,1.0979899E3,2.3240305E3,6.717064E2,4.4470957E3,5.915173E3,-1.2430191E2,-9.6841516E2,1.5889607E3,8.70917E1,1.6419465E3,2.7674583E3,4.8914532E2,2.3665466E3,5.1489854E3,3.71634E3,6.1553994E3,4.1765356E3,5.158953E2,-3.048387E2,-1.4240867E3,-4.6959467E2,7.193383E2,3.1700474E3,-2.049466E3,4.1128497E2,1.2842871E3,4.134309E3,3.2049067E3,2.3148193E3,9.0583276E2,6.9555954E1,3.1799407E3,1.0394584E3,5.6236836E3,4.5513896E3,4.202788E3,3.1488584E3,6.7229277E3,5.5220005E3,5.8431567E3,3.031769E3,-1.3683041E2,9.3603625E2,-4.0987817E2,1.0752238E3,-1.493778E3,3.6071865E3,-8.782359E1,-8.551887E2,2.251536E3,-9.124792E1,3.4938582E3,1.7750746E3,-2.3935566E3,-1.6665508E3,-1.2488635E2,1.1407068E3,1.0952364E2,2.8921504E0,2.5594328E2,1.9248245E2,1.3318474E2,1.9176463E2,1.0093325E2,1.323374E2,2.7582403E1,6.542476E1,-2.5346937E1,1.4415767E1,1.2611111E2,1.9211732E2,7.197119E1,3.0265518E1,2.5959558E2,3.2174054E2,1.8974887E2,2.4316972E2,2.8230072E2,1.9763933E2,1.7770905E2,1.2948314E2,3.443751E2,2.2743913E2,2.73122E2,4.7924533E2,2.0832666E2,3.4225842E2,1.3650128E2,2.489041E2,1.3238251E1,-2.5959593E1,2.9703144E1,6.574539E1,-3.852879E0,-3.7044613E1,-3.7910347E1,9.321041E1,-1.5165237E2,-7.308981E1,5.98355E2,3.94579E1,1.4256834E2,-1.0156499E1,-3.777617E1,-1.06553276E2,1.3728691E2,8.575402E1,-2.634354E1,1.9475294E1,1.4618274E2,2.0655167E2,4.9645382E1,1.29488E2,-1.0887423E2,-1.3184201E2,-6.492981E1,-1.0211559E2,-2.5094439E1,4.1429577E1,8.343838E1,5.2140656E0],"categories":[],"categories_nodes":[],"categories_segments":[],"categories_sizes":[],"default_left":[0,0,0,0,0,0,0,0,0,0,0,0,0,0,0,0,0,0,0,0,0,0,0,0,0,0,0,0,0,0,0,0,0,0,0,0,0,0,0,0,0,0,0,0,0,0,0,0,0,0,0,0,0,0,0,0,0,0,0,0,0,0,0,0,0,0,0,0,0,0,0,0,0,0,0,0,0,0,0,0,0,0,0,0,0,0,0,0,0,0,0,0,0,0,0,0,0,0,0,0,0,0,0,0,0,0,0,0,0,0,0,0,0,0,0,0,0,0,0,0,0,0,0,0,0,0,0],"id":3,"left_children":[1,3,5,7,9,11,13,15,17,19,21,23,25,27,29,31,33,35,37,39,41,43,45,47,49,51,53,55,57,59,61,63,65,67,69,71,73,75,77,79,81,83,85,87,89,91,93,95,97,99,101,103,105,107,109,111,113,115,117,119,121,123,125,-1,-1,-1,-1,-1,-1,-1,-1,-1,-1,-1,-1,-1,-1,-1,-1,-1,-1,-1,-1,-1,-1,-1,-1,-1,-1,-1,-1,-1,-1,-1,-1,-1,-1,-1,-1,-1,-1,-1,-1,-1,-1,-1,-1,-1,-1,-1,-1,-1,-1,-1,-1,-1,-1,-1,-1,-1,-1,-1,-1,-1,-1,-1,-1],"loss_changes":[1.2126663E11,4.416055E10,5.515129E10,3.291363E10,1.3720822E9,4.9532432E10,1.5012098E10,4.38861E9,2.1942024E10,6.984274E8,4.7966618E8,3.8626017E10,1.9950436E10,2.7990286E10,6.8505344E9,5.0980516E9,1.7352417E9,1.1193742E10,7.440548E9,1.7609728E8,1.769646E8,3.442729E8,2.6846848E8,2.0160096E10,3.778917E10,1.6089416E10,6.168704E9,1.6314831E10,3.2569344E9,1.6769126E8,3.3584758E9,5.565695E9,1.8152243E8,1.5158477E9,4.2020864E8,4.580559E9,4.0234227E9,1.8528256E9,4.5442406E8,1.0387866E8,5.706547E7,1.1046042E8,6.3778304E7,1.6725402E8,7.033139E7,7.227917E7,3.98528E7,4.4208205E9,5.793972E9,2.6687668E10,2.6672865E10,2.2229074E9,1.4761719E10,7.137291E9,2.6494362E9,1.2002488E9,1.7996051E9,2.1176975E9,8.6595994E8,3.0213888E7,8.307085E7,1.7797599E9,1.9908869E9,0E0,0E0,0E0,0E0,0E0,0E0,0E0,0E0,0E0,0E0,0E0,0E0,0E0,0E0,0E0,0E0,0E0,0E0,0E0,0E0,0E0,0E0,0E0,0E0,0E0,0E0,0E0,0E0,0E0,0E0,0E0,0E0,0E0,0E0,0E0,0E0,0E0,0E0,0E0,0E0,0E0,0E0,0E0,0E0,0E0,0E0,0E0,0E0,0E0,0E0,0E0,0E0,0E0,0E0,0E0,0E0,0E0,0E0,0E0,0E0,0E0,0E0,0E0,0E0],"parents":[2147483647,0,0,1,1,2,2,3,3,4,4,5,5,6,6,7,7,8,8,9,9,10,10,11,11,12,12,13,13,14,14,15,15,16,16,17,17,18,18,19,19,20,20,21,21,22,22,23,23,24,24,25,25,26,26,27,27,28,28,29,29,30,30,31,31,32,32,33,33,34,34,35,35,36,36,37,37,38,38,39,39,40,40,41,41,42,42,43,43,44,44,45,45,46,46,47,47,48,48,49,49,50,50,51,51,52,52,53,53,54,54,55,55,56,56,57,57,58,58,59,59,60,60,61,61,62,62],"right_children":[2,4,6,8,10,12,14,16,18,20,22,24,26,28,30,32,34,36,38,40,42,44,46,48,50,52,54,56,58,60,62,64,66,68,70,72,74,76,78,80,82,84,86,88,90,92,94,96,98,100,102,104,106,108,110,112,114,116,118,120,122,124,126,-1,-1,-1,-1,-1,-1,-1,-1,-1,-1,-1,-1,-1,-1,-1,-1,-1,-1,-1,-1,-1,-1,-1,-1,-1,-1,-1,-1,-1,-1,-1,-1,-1,-1,-1,-1,-1,-1,-1,-1,-1,-1,-1,-1,-1,-1,-1,-1,-1,-1,-1,-1,-1,-1,-1,-1,-1,-1,-1,-1,-1,-1,-1,-1],"split_conditions":[1E0,5.1E1,4.8E1,6E0,2E0,5E0,2.4E1,2.014E3,2.9E1,1E0,1E0,8E0,1E0,1.5E1,2.5E1,1.2E1,1E0,1E0,8E0,2.014E3,1E0,2.014E3,1E2,2.014E3,3E1,6E0,1E0,6E0,5E0,1E0,2.014E3,8E0,1.7E1,1E0,2E0,1E0,1.2E1,3E1,1E0,1.39E2,3.33E2,9E0,2.014E3,1.054E3,1.11E3,3.5E2,1.019E3,1E0,1E0,1E0,6E0,2.3E1,2.64E2,2E0,1.054E3,1E0,1E0,2E0,1E0,1E0,1E0,2.9E1,5E0,1.0952364E2,2.8921504E0,2.5594328E2,1.9248245E2,1.3318474E2,1.9176463E2,1.0093325E2,1.323374E2,2.7582403E1,6.542476E1,-2.5346937E1,1.4415767E1,1.2611111E2,1.9211732E2,7.197119E1,3.0265518E1,2.5959558E2,3.2174054E2,1.8974887E2,2.4316972E2,2.8230072E2,1.9763933E2,1.7770905E2,1.2948314E2,3.443751E2,2.2743913E2,2.73122E2,4.7924533E2,2.0832666E2,3.4225842E2,1.3650128E2,2.489041E2,1.3238251E1,-2.5959593E1,2.9703144E1,6.574539E1,-3.852879E0,-3.7044613E1,-3.7910347E1,9.321041E1,-1.5165237E2,-7.308981E1,5.98355E2,3.94579E1,1.4256834E2,-1.0156499E1,-3.777617E1,-1.06553276E2,1.3728691E2,8.575402E1,-2.634354E1,1.9475294E1,1.4618274E2,2.0655167E2,4.9645382E1,1.29488E2,-1.0887423E2,-1.3184201E2,-6.492981E1,-1.0211559E2,-2.5094439E1,4.1429577E1,8.343838E1,5.2140656E0],"split_indices":[1,11,11,10,5,1,10,8,10,3,15,10,5,10,10,9,7,7,9,8,7,8,14,8,10,1,7,10,1,5,8,9,14,5,5,5,10,10,7,14,0,14,8,0,0,0,0,7,5,7,11,0,0,5,0,7,5,5,5,7,7,10,1,0,0,0,0,0,0,0,0,0,0,0,0,0,0,0,0,0,0,0,0,0,0,0,0,0,0,0,0,0,0,0,0,0,0,0,0,0,0,0,0,0,0,0,0,0,0,0,0,0,0,0,0,0,0,0,0,0,0,0,0,0,0,0,0],"split_type":[0,0,0,0,0,0,0,0,0,0,0,0,0,0,0,0,0,0,0,0,0,0,0,0,0,0,0,0,0,0,0,0,0,0,0,0,0,0,0,0,0,0,0,0,0,0,0,0,0,0,0,0,0,0,0,0,0,0,0,0,0,0,0,0,0,0,0,0,0,0,0,0,0,0,0,0,0,0,0,0,0,0,0,0,0,0,0,0,0,0,0,0,0,0,0,0,0,0,0,0,0,0,0,0,0,0,0,0,0,0,0,0,0,0,0,0,0,0,0,0,0,0,0,0,0,0,0],"sum_hessian":[5.40262E5,8.8049E4,4.52213E5,8.5442E4,2.607E3,4.21967E5,3.0246E4,1.4524E4,7.0918E4,1.398E3,1.209E3,3.34193E5,8.7774E4,2.0358E4,9.888E3,5.724E3,8.8E3,6.4023E4,6.895E3,7.1E2,6.88E2,1.06E3,1.49E2,7.3512E4,2.60681E5,4.587E4,4.1904E4,1.3135E4,7.223E3,1.302E3,8.586E3,5.007E3,7.17E2,4.472E3,4.328E3,3.2122E4,3.1901E4,4.274E3,2.621E3,3.91E2,3.19E2,3.67E2,3.21E2,5.54E2,5.06E2,5.9E1,9E1,2.8788E4,4.4724E4,2.42244E5,1.8437E4,4.5244E4,6.26E2,2.1057E4,2.0847E4,4.544E3,8.591E3,5.861E3,1.362E3,6.83E2,6.19E2,4.949E3,3.637E3,2.879E3,2.128E3,1.57E2,5.6E2,2.409E3,2.063E3,2.291E3,2.037E3,1.7091E4,1.5031E4,8.775E3,2.3126E4,2.147E3,2.127E3,1.363E3,1.258E3,2.6E2,1.31E2,9.7E1,2.22E2,5.1E1,3.16E2,1.83E2,1.38E2,5.13E2,4.1E1,5.01E2,5E0,2.4E1,3.5E1,8E1,1E1,1.4041E4,1.4747E4,2.3508E4,2.1216E4,1.20793E5,1.21451E5,5.547E3,1.289E4,9.19E2,4.4325E4,1.57E2,4.69E2,7.94E2,2.0263E4,1.9338E4,1.509E3,2.363E3,2.181E3,4.507E3,4.084E3,3.096E3,2.765E3,6.96E2,6.66E2,3.67E2,3.16E2,3.15E2,3.04E2,3.547E3,1.402E3,2.409E3,1.228E3],"tree_param":{"num_deleted":"0","num_feature":"16","num_nodes":"127","size_leaf_vector":"1"}},{"base_weights":[-2.698238E0,1.7280472E2,-8.3277905E2,1.012853E3,1.8222628E1,-1.3697281E3,-2.1109808E2,4.3117618E2,1.4096417E3,3.5286832E2,-3.160771E2,-2.104848E2,-1.7113533E3,2.3375156E3,-3.880393E2,9.592872E1,2.146765E3,2.5218918E3,1.2694254E3,-1.1177185E1,7.656219E2,7.047203E2,-4.688179E2,7.5586847E2,-8.937135E2,-2.0395752E3,-1.1940455E3,6.582645E3,1.4882197E3,-5.0069705E2,4.0712332E2,3.793385E2,-9.5478735E2,3.5325276E3,1.8526147E3,2.060412E3,3.357771E3,1.6631985E3,8.5066486E2,5.3142883E1,-2.242763E3,2.0403322E3,2.6884567E2,1.0227082E3,-2.9017358E2,-5.7456696E2,5.7778613E2,1.3200468E2,6.1485576E3,-5.104644E2,-2.287379E3,-1.9199089E3,-3.5831963E3,-1.5293648E2,-1.5486067E3,1.4007867E4,2.4467585E3,9.439665E2,4.2805734E2,2.2439626E3,-5.301921E2,7.7675653E2,8.040579E1,4.3199703E1,-1.4038637E1,-7.015336E1,-1.8271038E1,1.1910081E2,2.106315E2,4.906564E0,9.986045E1,1.2167948E2,6.84254E1,1.3887822E2,2.5236641E2,6.2039673E1,1.061995E2,3.57081E1,1.03549515E2,-8.251545E-1,5.8913208E1,-7.8052605E1,-1.3403023E2,1.3671184E2,4.784186E1,8.828687E0,8.848514E1,4.4705906E1,3.7399295E2,-2.345517E1,1.27282326E2,-3.2704975E1,4.7253845E1,-5.410448E1,4.582166E1,-2.8196487E1,8.6298645E1,1.9335954E2,5.472619E2,4.787811E1,-3.9075092E1,-8.5155464E1,-1.4918211E2,-7.276757E1,-1.0129911E2,-1.9496596E2,-1.3908531E2,4.804057E1,-5.8235394E1,-5.5722378E1,-9.079972E1,5.2855664E2,7.173769E2,1.9746893E2,-3.508674E0,9.531318E1,-2.3275711E1,1.8059538E1,2.3934807E2,-1.7570599E1,-4.659332E1,8.156253E1,1.6467207E1,-1.7475496E1,1.8383797E1],"categories":[],"categories_nodes":[],"categories_segments":[],"categories_sizes":[],"default_left":[0,0,0,0,0,0,0,0,0,0,0,0,0,0,0,0,0,0,0,0,0,0,0,0,0,0,0,0,0,0,0,0,0,0,0,0,0,0,0,0,0,0,0,0,0,0,0,0,0,0,0,0,0,0,0,0,0,0,0,0,0,0,0,0,0,0,0,0,0,0,0,0,0,0,0,0,0,0,0,0,0,0,0,0,0,0,0,0,0,0,0,0,0,0,0,0,0,0,0,0,0,0,0,0,0,0,0,0,0,0,0,0,0,0,0,0,0,0,0,0,0,0,0,0,0],"id":4,"left_children":[1,3,5,7,9,11,13,15,17,19,21,23,25,27,29,31,33,35,37,39,41,43,45,47,49,51,53,55,57,59,61,63,65,67,69,71,73,75,77,79,81,83,85,87,89,91,93,95,97,99,101,103,105,107,109,111,113,115,-1,117,119,121,123,-1,-1,-1,-1,-1,-1,-1,-1,-1,-1,-1,-1,-1,-1,-1,-1,-1,-1,-1,-1,-1,-1,-1,-1,-1,-1,-1,-1,-1,-1,-1,-1,-1,-1,-1,-1,-1,-1,-1,-1,-1,-1,-1,-1,-1,-1,-1,-1,-1,-1,-1,-1,-1,-1,-1,-1,-1,-1,-1,-1,-1,-1],"loss_changes":[7.876045E10,5.795205E10,3.1496794E10,1.6007643E10,4.216689E10,2.0049666E10,1.972071E10,1.6177522E10,6.4271647E9,2.8303634E10,2.9399808E10,7.6099446E9,6.637101E9,1.022585E10,3.6632689E9,7.007499E9,1.8677023E9,1.7732792E9,6.0367667E9,1.4366326E10,5.5899853E10,7.7645066E9,1.8153308E10,1.6060375E10,3.6052173E9,4.412162E9,5.6039977E9,1.4491501E10,9.103598E9,2.9007114E9,6.128231E8,5.9294413E9,1.3202294E9,6.190674E8,9.625508E8,7.650806E8,1.5936614E9,3.6704297E9,2.9549455E9,7.6232873E9,8.3275776E8,1.8609242E10,8.79666E9,1.5435708E10,3.0177626E9,1.8004816E10,8.4619023E9,4.748766E9,5.3744517E9,2.1083726E9,5.8722765E8,1.091199E9,4.2494976E8,4.3485384E9,1.312682E9,4.5613056E7,1.1537851E9,2.9834767E9,0E0,1.8224558E9,2.5444516E9,9.0974605E8,3.3296624E8,0E0,0E0,0E0,0E0,0E0,0E0,0E0,0E0,0E0,0E0,0E0,0E0,0E0,0E0,0E0,0E0,0E0,0E0,0E0,0E0,0E0,0E0,0E0,0E0,0E0,0E0,0E0,0E0,0E0,0E0,0E0,0E0,0E0,0E0,0E0,0E0,0E0,0E0,0E0,0E0,0E0,0E0,0E0,0E0,0E0,0E0,0E0,0E0,0E0,0E0,0E0,0E0,0E0,0E0,0E0,0E0,0E0,0E0,0E0,0E0,0E0,0E0],"parents":[2147483647,0,0,1,1,2,2,3,3,4,4,5,5,6,6,7,7,8,8,9,9,10,10,11,11,12,12,13,13,14,14,15,15,16,16,17,17,18,18,19,19,20,20,21,21,22,22,23,23,24,24,25,25,26,26,27,27,28,28,29,29,30,30,31,31,32,32,33,33,34,34,35,35,36,36,37,37,38,38,39,39,40,40,41,41,42,42,43,43,44,44,45,45,46,46,47,47,48,48,49,49,50,50,51,51,52,52,53,53,54,54,55,55,56,56,57,57,59,59,60,60,61,61,62,62],"right_children":[2,4,6,8,10,12,14,16,18,20,22,24,26,28,30,32,34,36,38,40,42,44,46,48,50,52,54,56,58,60,62,64,66,68,70,72,74,76,78,80,82,84,86,88,90,92,94,96,98,100,102,104,106,108,110,112,114,116,-1,118,120,122,124,-1,-1,-1,-1,-1,-1,-1,-1,-1,-1,-1,-1,-1,-1,-1,-1,-1,-1,-1,-1,-1,-1,-1,-1,-1,-1,-1,-1,-1,-1,-1,-1,-1,-1,-1,-1,-1,-1,-1,-1,-1,-1,-1,-1,-1,-1,-1,-1,-1,-1,-1,-1,-1,-1,-1,-1,-1,-1,-1,-1,-1,-1],"split_conditions":[1E0,6E0,1E0,2.014E3,1E0,4.1E2,2E0,1.1E1,2.6E2,1E0,2.9E2,1E0,1E0,2.7E1,1.1E1,9E0,4.4E2,1E0,1E0,2.715E4,1.61E3,2E0,2.9E1,3.4E2,3.3E2,1.801E4,1.69E3,1.19E3,2E0,7E1,1E0,1E0,1E1,1.2E1,2E0,1.63E2,2.1E2,1E0,1.404E4,1.2E1,5.7E1,2E0,1.2E1,1E0,2.7E2,1.2E1,2E0,1E0,1.05E2,9E1,1.46E2,8.7E2,1E0,1E0,5.15E3,2E0,1.5E1,8.7E2,4.2805734E2,1E0,7E0,3E0,1E0,4.3199703E1,-1.4038637E1,-7.015336E1,-1.8271038E1,1.1910081E2,2.106315E2,4.906564E0,9.986045E1,1.2167948E2,6.84254E1,1.3887822E2,2.5236641E2,6.2039673E1,1.061995E2,3.57081E1,1.03549515E2,-8.251545E-1,5.8913208E1,-7.8052605E1,-1.3403023E2,1.3671184E2,4.784186E1,8.828687E0,8.848514E1,4.4705906E1,3.7399295E2,-2.345517E1,1.27282326E2,-3.2704975E1,4.7253845E1,-5.410448E1,4.582166E1,-2.8196487E1,8.6298645E1,1.9335954E2,5.472619E2,4.787811E1,-3.9075092E1,-8.5155464E1,-1.4918211E2,-7.276757E1,-1.0129911E2,-1.9496596E2,-1.3908531E2,4.804057E1,-5.8235394E1,-5.5722378E1,-9.079972E1,5.2855664E2,7.173769E2,1.9746893E2,-3.508674E0,9.531318E1,-2.3275711E1,1.8059538E1,2.3934807E2,-1.7570599E1,-4.659332E1,8.156253E1,1.6467207E1,-1.7475496E1,1.8383797E1],"split_indices":[12,10,4,8,7,6,4,9,6,5,6,7,5,14,9,9,6,5,7,6,6,4,10,6,6,6,6,6,5,6,7,3,9,9,10,14,6,5,6,9,14,4,9,4,6,9,9,5,14,6,14,6,7,7,6,9,14,6,0,5,9,4,5,0,0,0,0,0,0,0,0,0,0,0,0,0,0,0,0,0,0,0,0,0,0,0,0,0,0,0,0,0,0,0,0,0,0,0,0,0,0,0,0,0,0,0,0,0,0,0,0,0,0,0,0,0,0,0,0,0,0,0,0,0,0],"split_type":[0,0,0,0,0,0,0,0,0,0,0,0,0,0,0,0,0,0,0,0,0,0,0,0,0,0,0,0,0,0,0,0,0,0,0,0,0,0,0,0,0,0,0,0,0,0,0,0,0,0,0,0,0,0,0,0,0,0,0,0,0,0,0,0,0,0,0,0,0,0,0,0,0,0,0,0,0,0,0,0,0,0,0,0,0,0,0,0,0,0,0,0,0,0,0,0,0,0,0,0,0,0,0,0,0,0,0,0,0,0,0,0,0,0,0,0,0,0,0,0,0,0,0,0,0],"sum_hessian":[5.40632E5,4.46277E5,9.4355E4,6.9358E4,3.76919E5,5.0627E4,4.3728E4,2.8127E4,4.1231E4,1.88362E5,1.88557E5,1.1524E4,3.9103E4,2.838E3,4.089E4,2.353E4,4.597E3,4.614E3,3.6617E4,1.00087E5,8.8275E4,2.4541E4,1.64016E5,4.773E3,6.751E3,2.3922E4,1.5181E4,4.72E2,2.366E3,3.5816E4,5.074E3,1.8532E4,4.998E3,8.03E2,3.794E3,2.975E3,1.639E3,1.887E4,1.7747E4,9.7284E4,2.803E3,2.4754E4,6.3521E4,1.8597E4,5.944E3,1.48965E5,1.5051E4,4.279E3,4.94E2,5.296E3,1.455E3,2.2203E4,1.719E3,3.857E3,1.1324E4,1.68E2,3.04E2,2.198E3,1.68E2,3.8E2,3.5436E4,2.38E3,2.694E3,1.0686E4,7.846E3,2.838E3,2.16E3,3E2,5.03E2,2.89E2,3.505E3,1.931E3,1.044E3,1.222E3,4.17E2,9.847E3,9.023E3,1.5963E4,1.784E3,9.1614E4,5.67E3,1.098E3,1.705E3,1.5089E4,9.665E3,5.9843E4,3.678E3,1.8235E4,3.62E2,5.592E3,3.52E2,1.41557E5,7.408E3,2.55E3,1.2501E4,2.979E3,1.3E3,3.36E2,1.58E2,8.25E2,4.471E3,7.93E2,6.62E2,4.13E3,1.8073E4,1.23E3,4.89E2,1.836E3,2.021E3,4.318E3,7.006E3,1.8E1,1.5E2,1.9E2,1.14E2,1.306E3,8.92E2,2.19E2,1.61E2,2.4523E4,1.0913E4,8.17E2,1.563E3,1.079E3,1.615E3],"tree_param":{"num_deleted":"0","num_feature":"16","num_nodes":"125","size_leaf_vector":"1"}},{"base_weights":[2.2258651E0,-9.466236E2,1.1780483E3,-1.275387E3,-5.820667E2,2.489844E3,8.3962634E2,-1.2944662E3,3.2244795E3,-1.7019205E2,-9.906345E2,2.4116892E3,5.330402E3,7.436804E2,2.4910742E3,-1.3695142E3,-2.7104556E2,1.0407459E4,7.705519E2,2.5194011E3,-2.4384918E2,-1.0831255E3,2.7153864E2,2.7665276E3,2.0563376E3,4.883415E3,5.828547E3,1.0249489E3,4.620653E2,1.7800338E3,3.1905244E3,-1.1167161E3,-1.6243611E3,8.469966E2,-4.8079578E2,3.2029207E3,8.661717E2,3.3372046E3,-7.407409E2,3.6436538E3,7.872024E2,-3.617202E2,1.3077649E3,-1.3740645E3,-7.3682086E2,-1.510539E2,1.172368E3,2.3934414E3,3.1986052E3,2.296162E3,1.8012037E3,5.313132E3,4.335882E3,5.7615356E3,5.441669E2,6.9364264E2,1.4000006E3,8.819426E2,3.1501813E2,1.3445082E3,2.2555024E3,2.7091892E3,3.7059614E3,-9.9273605E1,-5.18809E1,-9.3939545E1,-7.574141E1,-3.9332233E1,1.7051884E2,-8.384698E0,-4.0970097E1,1.2058862E2,1.8100813E2,2.1995348E1,2.9942392E2,3.8418518E1,-6.3988453E1,1.019855E2,3.483548E2,5.9836445E0,1.5336081E2,-2.1338818E1,6.756642E1,1.4653282E2,4.9666115E1,-4.672131E1,-8.3656334E1,-3.242468E1,-9.486367E1,-3.0074148E1,2.2354519E1,2.219952E2,1.8480537E1,1.0405508E2,1.4246704E2,1.5629637E2,3.3745312E2,1.01822105E2,1.3817284E2,6.8306694E1,1.04104675E2,2.6897623E2,7.3522125E1,1.6535199E2,2.3002502E2,2.9322244E2,1.7398796E2,-1.8738003E1,3.958573E1,8.575903E1,4.292259E1,6.1911896E1,2.5033804E1,4.0689793E0,2.8963129E1,8.555833E1,4.6768787E1,1.3937881E2,8.580217E1,1.7764941E2,1.2114546E2,2.0982857E2,1.5998058E2],"categories":[],"categories_nodes":[],"categories_segments":[],"categories_sizes":[],"default_left":[0,0,0,0,0,0,0,0,0,0,0,0,0,0,0,0,0,0,0,0,0,0,0,0,0,0,0,0,0,0,0,0,0,0,0,0,0,0,0,0,0,0,0,0,0,0,0,0,0,0,0,0,0,0,0,0,0,0,0,0,0,0,0,0,0,0,0,0,0,0,0,0,0,0,0,0,0,0,0,0,0,0,0,0,0,0,0,0,0,0,0,0,0,0,0,0,0,0,0,0,0,0,0,0,0,0,0,0,0,0,0,0,0,0,0,0,0,0,0,0,0,0,0],"id":5,"left_children":[1,3,5,7,9,11,13,15,17,19,21,23,25,27,29,31,33,35,37,39,41,43,45,47,49,51,53,55,57,59,61,63,65,67,69,71,-1,73,75,77,79,81,83,85,87,89,91,93,95,97,99,101,103,105,-1,107,109,111,113,115,117,119,121,-1,-1,-1,-1,-1,-1,-1,-1,-1,-1,-1,-1,-1,-1,-1,-1,-1,-1,-1,-1,-1,-1,-1,-1,-1,-1,-1,-1,-1,-1,-1,-1,-1,-1,-1,-1,-1,-1,-1,-1,-1,-1,-1,-1,-1,-1,-1,-1,-1,-1,-1,-1,-1,-1,-1,-1,-1,-1,-1,-1],"loss_changes":[6.027197E11,3.5831546E10,1.0710211E11,1.350058E10,2.3856534E10,1.0970989E10,3.038611E10,1.2022628E10,1.1695985E10,1.3987019E10,8.308654E9,6.066045E9,2.663424E8,1.4356554E10,5.2312883E9,9.394061E9,2.5087217E9,8.365179E9,1.9264381E9,3.6621926E9,1.2568516E10,6.6800517E9,1.8503003E9,3.8758482E9,1.4682194E9,1.4260224E8,1.4764646E8,1.1266908E10,5.591861E9,1.0787482E9,1.3066158E9,5.029323E9,2.0211139E9,7.079801E9,9.5476864E8,1.899744E7,0E0,1.4107671E9,2.5559426E8,6.06802E9,1.1289393E9,7.1183007E9,2.4730936E9,4.736291E9,3.1021517E9,8.917849E8,4.0693135E9,1.8355241E9,2.858623E9,1.499308E9,1.4225736E9,9.158861E7,7.054541E7,1.2400845E8,0E0,5.0455777E9,7.258112E9,3.190614E9,4.1414395E9,4.0778138E8,7.116472E8,6.552064E8,6.2253056E8,0E0,0E0,0E0,0E0,0E0,0E0,0E0,0E0,0E0,0E0,0E0,0E0,0E0,0E0,0E0,0E0,0E0,0E0,0E0,0E0,0E0,0E0,0E0,0E0,0E0,0E0,0E0,0E0,0E0,0E0,0E0,0E0,0E0,0E0,0E0,0E0,0E0,0E0,0E0,0E0,0E0,0E0,0E0,0E0,0E0,0E0,0E0,0E0,0E0,0E0,0E0,0E0,0E0,0E0,0E0,0E0,0E0,0E0,0E0,0E0],"parents":[2147483647,0,0,1,1,2,2,3,3,4,4,5,5,6,6,7,7,8,8,9,9,10,10,11,11,12,12,13,13,14,14,15,15,16,16,17,17,18,18,19,19,20,20,21,21,22,22,23,23,24,24,25,25,26,26,27,27,28,28,29,29,30,30,31,31,32,32,33,33,34,34,35,35,37,37,38,38,39,39,40,40,41,41,42,42,43,43,44,44,45,45,46,46,47,47,48,48,49,49,50,50,51,51,52,52,53,53,55,55,56,56,57,57,58,58,59,59,60,60,61,61,62,62],"right_children":[2,4,6,8,10,12,14,16,18,20,22,24,26,28,30,32,34,36,38,40,42,44,46,48,50,52,54,56,58,60,62,64,66,68,70,72,-1,74,76,78,80,82,84,86,88,90,92,94,96,98,100,102,104,106,-1,108,110,112,114,116,118,120,122,-1,-1,-1,-1,-1,-1,-1,-1,-1,-1,-1,-1,-1,-1,-1,-1,-1,-1,-1,-1,-1,-1,-1,-1,-1,-1,-1,-1,-1,-1,-1,-1,-1,-1,-1,-1,-1,-1,-1,-1,-1,-1,-1,-1,-1,-1,-1,-1,-1,-1,-1,-1,-1,-1,-1,-1,-1,-1,-1,-1],"split_conditions":[1E0,1E0,1E0,6E0,1E0,5E1,1.2E1,4.8E1,2.64E2,2E0,4.8E1,1E0,2E0,1E0,5E1,1E0,1E0,8.9E1,4.28E2,7.37E2,4.8E1,4E0,5.1E1,1E0,2E0,2.014E3,1.11E3,1E0,2E0,1E0,1E0,8.9E1,3.29E2,1E0,1E0,1.9E1,8.661717E2,3.37E2,4.97E2,6.8E2,6E0,1.071E3,1E0,2E0,1.054E3,4E0,1E0,6.5E2,1.101E3,2E0,2.014E3,1E0,2.3E2,1.062E3,5.441669E2,8.9E1,3E0,2E0,2E0,1E0,1E0,2E0,1E0,-9.9273605E1,-5.18809E1,-9.3939545E1,-7.574141E1,-3.9332233E1,1.7051884E2,-8.384698E0,-4.0970097E1,1.2058862E2,1.8100813E2,2.1995348E1,2.9942392E2,3.8418518E1,-6.3988453E1,1.019855E2,3.483548E2,5.9836445E0,1.5336081E2,-2.1338818E1,6.756642E1,1.4653282E2,4.9666115E1,-4.672131E1,-8.3656334E1,-3.242468E1,-9.486367E1,-3.0074148E1,2.2354519E1,2.219952E2,1.8480537E1,1.0405508E2,1.4246704E2,1.5629637E2,3.3745312E2,1.01822105E2,1.3817284E2,6.8306694E1,1.04104675E2,2.6897623E2,7.3522125E1,1.6535199E2,2.3002502E2,2.9322244E2,1.7398796E2,-1.8738003E1,3.958573E1,8.575903E1,4.292259E1,6.1911896E1,2.5033804E1,4.0689793E0,2.8963129E1,8.555833E1,4.6768787E1,1.3937881E2,8.580217E1,1.7764941E2,1.2114546E2,2.0982857E2,1.5998058E2],"split_indices":[2,5,1,1,7,11,9,11,0,5,11,7,5,7,11,7,1,0,0,0,11,1,11,5,4,8,0,5,1,5,5,0,0,3,7,11,0,0,0,0,1,0,1,4,0,1,1,0,0,5,8,5,0,0,0,0,4,4,5,7,7,1,7,0,0,0,0,0,0,0,0,0,0,0,0,0,0,0,0,0,0,0,0,0,0,0,0,0,0,0,0,0,0,0,0,0,0,0,0,0,0,0,0,0,0,0,0,0,0,0,0,0,0,0,0,0,0,0,0,0,0,0,0],"split_type":[0,0,0,0,0,0,0,0,0,0,0,0,0,0,0,0,0,0,0,0,0,0,0,0,0,0,0,0,0,0,0,0,0,0,0,0,0,0,0,0,0,0,0,0,0,0,0,0,0,0,0,0,0,0,0,0,0,0,0,0,0,0,0,0,0,0,0,0,0,0,0,0,0,0,0,0,0,0,0,0,0,0,0,0,0,0,0,0,0,0,0,0,0,0,0,0,0,0,0,0,0,0,0,0,0,0,0,0,0,0,0,0,0,0,0,0,0,0,0,0,0,0,0],"sum_hessian":[5.40225E5,2.98968E5,2.41257E5,1.572E5,1.41768E5,4.9475E4,1.91782E5,1.56537E5,6.63E2,7.0599E4,7.1169E4,4.8152E4,1.323E3,1.81253E5,1.0529E4,1.45842E5,1.0695E4,1.68E2,4.95E2,1.881E3,6.8718E4,6.631E4,4.859E3,2.409E4,2.4062E4,7.03E2,6.2E2,9.0681E4,9.0572E4,5.223E3,5.306E3,7.3218E4,7.2624E4,1.689E3,9.006E3,8.3E1,8.5E1,1.83E2,3.12E2,1.14E3,7.41E2,6.3867E4,4.851E3,3.6034E4,3.0276E4,3.308E3,1.551E3,1.2931E4,1.1159E4,1.2399E4,1.1663E4,3.89E2,3.14E2,6.14E2,6E0,4.815E4,4.2531E4,2.3491E4,6.7081E4,2.728E3,2.495E3,2.747E3,2.559E3,6.108E3,6.711E4,2.1851E4,5.0773E4,1.032E3,6.57E2,4.68E3,4.326E3,3.1E1,5.2E1,8.8E1,9.5E1,8.2E1,2.3E2,7.7E2,3.7E2,5.74E2,1.67E2,6.1531E4,2.336E3,7.86E2,4.065E3,1.459E4,2.1444E4,2.8136E4,2.14E3,1.887E3,1.421E3,3.05E2,1.246E3,7.677E3,5.254E3,1.0937E4,2.22E2,7.973E3,4.426E3,4.578E3,7.085E3,3.82E2,7E0,6.7E1,2.47E2,5.86E2,2.8E1,4.048E3,4.4102E4,2.6883E4,1.5648E4,1.2142E4,1.1349E4,3.5603E4,3.1478E4,1.437E3,1.291E3,1.254E3,1.241E3,6.93E2,2.054E3,1.296E3,1.263E3],"tree_param":{"num_deleted":"0","num_feature":"16","num_nodes":"123","size_leaf_vector":"1"}},{"base_weights":[-2.0495678E-1,-9.028759E2,1.1199562E3,-1.2162262E3,-5.5505133E2,2.3692068E3,7.981253E2,-1.2344386E3,3.179668E3,5.536954E2,-7.033595E2,3.7867139E3,2.2236138E3,1.5956472E3,6.265619E2,-5.876794E2,-1.3354619E3,1.0659301E4,6.5433026E2,1.9633641E3,-3.8670053E2,-3.8656595E2,-1.0350996E3,3.341803E2,3.971637E3,2.598086E3,1.8456339E3,1.1531824E3,2.3367627E3,5.522567E2,1.8983602E3,5.166076E2,-6.836668E2,-1.069267E3,-1.6091846E3,2.8776204E3,8.512799E2,3.1491726E3,-6.6943994E2,1.3819826E2,4.409625E3,2.986856E3,-5.855228E2,8.2293805E2,-7.0315607E2,-1.3325956E3,-6.845241E2,9.6475696E2,-6.21948E2,3.7349941E3,6.402571E3,2.23326E3,2.9995503E3,1.6689115E3,3.5451604E3,1.8994684E3,7.3283167E2,3.536701E3,1.5011115E3,8.1238446E2,2.750213E2,2.3492375E3,1.4582941E3,7.148407E1,-8.723414E1,-2.6669346E1,-9.225428E1,-4.951898E1,-1.5803801E2,-8.761379E1,-6.669152E1,2.279793E2,1.3326408E2,2.103556E1,2.7984976E2,3.6975258E1,-6.1751278E1,7.796079E1,-3.2578396E1,2.5080423E2,-7.517013E1,-1.2330408E2,4.0267148E2,-1.6616829E1,-1.02537834E2,-2.4574053E1,9.261852E1,-3.3482388E1,-1.7651317E2,-7.118411E1,-8.491244E0,-3.8701855E1,1.666413E1,1.8263084E2,4.096587E1,-6.0669018E1,1.0341013E1,2.332304E2,1.6103743E2,1.9276794E2,4.694257E2,1.1557494E2,-8.117193E0,4.4419077E2,1.4075919E2,1.4160793E2,7.927723E1,1.8669905E2,-6.662824E1,6.932028E1,1.822929E2,7.03487E1,5.2405276E0,2.6899326E2,8.986827E1,1.09394485E2,1.8417212E1,3.6485523E1,1.024517E2,6.785006E0,7.111371E1,9.747646E1,1.3829385E2,5.0040348E1,9.6783455E1],"categories":[],"categories_nodes":[],"categories_segments":[],"categories_sizes":[],"default_left":[0,0,0,0,0,0,0,0,0,0,0,0,0,0,0,0,0,0,0,0,0,0,0,0,0,0,0,0,0,0,0,0,0,0,0,0,0,0,0,0,0,0,0,0,0,0,0,0,0,0,0,0,0,0,0,0,0,0,0,0,0,0,0,0,0,0,0,0,0,0,0,0,0,0,0,0,0,0,0,0,0,0,0,0,0,0,0,0,0,0,0,0,0,0,0,0,0,0,0,0,0,0,0,0,0,0,0,0,0,0,0,0,0,0,0,0,0,0,0,0,0,0,0,0,0],"id":6,"left_children":[1,3,5,7,9,11,13,15,17,19,21,23,25,27,29,31,33,35,37,39,41,43,45,47,49,51,53,55,57,59,61,63,65,67,69,71,-1,73,75,77,79,81,83,85,87,89,91,93,95,97,99,101,103,105,107,109,111,113,115,117,119,121,123,-1,-1,-1,-1,-1,-1,-1,-1,-1,-1,-1,-1,-1,-1,-1,-1,-1,-1,-1,-1,-1,-1,-1,-1,-1,-1,-1,-1,-1,-1,-1,-1,-1,-1,-1,-1,-1,-1,-1,-1,-1,-1,-1,-1,-1,-1,-1,-1,-1,-1,-1,-1,-1,-1,-1,-1,-1,-1,-1,-1,-1,-1],"loss_changes":[5.465731E11,3.2624214E10,9.69788E10,1.2611076E10,2.3328293E10,1.0189177E10,2.6242974E10,1.0245603E10,1.2270617E10,2.2189433E10,1.3149794E10,2.936193E9,6.3380193E9,1.1132076E10,1.4916067E10,2.2462316E9,9.881141E9,8.075643E9,1.6104733E9,2.9904833E10,6.7366303E9,2.4510329E10,6.3737897E9,1.422844E8,2.4882627E9,3.2899236E9,6.6932654E9,6.6691625E9,1.272234E10,1.0755178E10,1.7253724E9,3.502203E9,3.4014577E9,1.1342742E10,2.632401E9,1.4633408E7,0E0,1.1263608E9,2.5511771E8,4.3071724E9,1.0270708E10,1.546375E10,3.517293E9,1.7968802E10,4.803367E9,3.5015557E9,2.556717E9,5.251815E7,4.6326024E7,1.8885714E9,2.8996536E9,2.211287E9,1.159712E10,1.9550126E9,1.9391078E9,6.859258E9,5.7594547E9,1.6692969E10,5.821443E9,7.8650655E9,1.1539533E10,7.110369E8,9.616128E8,0E0,0E0,0E0,0E0,0E0,0E0,0E0,0E0,0E0,0E0,0E0,0E0,0E0,0E0,0E0,0E0,0E0,0E0,0E0,0E0,0E0,0E0,0E0,0E0,0E0,0E0,0E0,0E0,0E0,0E0,0E0,0E0,0E0,0E0,0E0,0E0,0E0,0E0,0E0,0E0,0E0,0E0,0E0,0E0,0E0,0E0,0E0,0E0,0E0,0E0,0E0,0E0,0E0,0E0,0E0,0E0,0E0,0E0,0E0,0E0,0E0,0E0],"parents":[2147483647,0,0,1,1,2,2,3,3,4,4,5,5,6,6,7,7,8,8,9,9,10,10,11,11,12,12,13,13,14,14,15,15,16,16,17,17,18,18,19,19,20,20,21,21,22,22,23,23,24,24,25,25,26,26,27,27,28,28,29,29,30,30,31,31,32,32,33,33,34,34,35,35,37,37,38,38,39,39,40,40,41,41,42,42,43,43,44,44,45,45,46,46,47,47,48,48,49,49,50,50,51,51,52,52,53,53,54,54,55,55,56,56,57,57,58,58,59,59,60,60,61,61,62,62],"right_children":[2,4,6,8,10,12,14,16,18,20,22,24,26,28,30,32,34,36,38,40,42,44,46,48,50,52,54,56,58,60,62,64,66,68,70,72,-1,74,76,78,80,82,84,86,88,90,92,94,96,98,100,102,104,106,108,110,112,114,116,118,120,122,124,-1,-1,-1,-1,-1,-1,-1,-1,-1,-1,-1,-1,-1,-1,-1,-1,-1,-1,-1,-1,-1,-1,-1,-1,-1,-1,-1,-1,-1,-1,-1,-1,-1,-1,-1,-1,-1,-1,-1,-1,-1,-1,-1,-1,-1,-1,-1,-1,-1,-1,-1,-1,-1,-1,-1,-1,-1,-1,-1,-1,-1,-1],"split_conditions":[1E0,1E0,1E0,6E0,3.7E2,2.3E2,4.4E2,2.6E2,2.64E2,1E0,1E0,4E1,1E0,1E0,3E1,1E0,1E0,8.9E1,4.28E2,1.8E2,7E1,1.61E3,4E0,8.84E2,2.1E2,1E0,1.404E4,1.7E2,1E0,1E0,3E0,2E2,9.84E2,2.233E4,3.76E3,3E0,8.512799E2,3.37E2,4.97E2,5.24E2,8.28E2,5.19E2,3.5E2,8.4E2,6E0,1.527E4,2.9E1,1E0,3.3E1,1E2,2E0,2.715E4,3.7E2,3.3E2,2.613E4,1.4E2,5.45E2,5.24E2,3.1E2,1.032E3,1.404E4,1E0,2E0,7.148407E1,-8.723414E1,-2.6669346E1,-9.225428E1,-4.951898E1,-1.5803801E2,-8.761379E1,-6.669152E1,2.279793E2,1.3326408E2,2.103556E1,2.7984976E2,3.6975258E1,-6.1751278E1,7.796079E1,-3.2578396E1,2.5080423E2,-7.517013E1,-1.2330408E2,4.0267148E2,-1.6616829E1,-1.02537834E2,-2.4574053E1,9.261852E1,-3.3482388E1,-1.7651317E2,-7.118411E1,-8.491244E0,-3.8701855E1,1.666413E1,1.8263084E2,4.096587E1,-6.0669018E1,1.0341013E1,2.332304E2,1.6103743E2,1.9276794E2,4.694257E2,1.1557494E2,-8.117193E0,4.4419077E2,1.4075919E2,1.4160793E2,7.927723E1,1.8669905E2,-6.662824E1,6.932028E1,1.822929E2,7.03487E1,5.2405276E0,2.6899326E2,8.986827E1,1.09394485E2,1.8417212E1,3.6485523E1,1.024517E2,6.785006E0,7.111371E1,9.747646E1,1.3829385E2,5.0040348E1,9.6783455E1],"split_indices":[2,5,1,1,6,6,6,6,0,7,7,6,7,5,10,14,7,0,0,6,6,6,1,0,6,5,6,6,7,7,13,6,0,6,6,10,0,0,0,0,0,0,6,6,1,6,10,14,14,6,5,6,6,6,6,6,0,0,6,0,6,5,5,0,0,0,0,0,0,0,0,0,0,0,0,0,0,0,0,0,0,0,0,0,0,0,0,0,0,0,0,0,0,0,0,0,0,0,0,0,0,0,0,0,0,0,0,0,0,0,0,0,0,0,0,0,0,0,0,0,0,0,0,0,0],"split_type":[0,0,0,0,0,0,0,0,0,0,0,0,0,0,0,0,0,0,0,0,0,0,0,0,0,0,0,0,0,0,0,0,0,0,0,0,0,0,0,0,0,0,0,0,0,0,0,0,0,0,0,0,0,0,0,0,0,0,0,0,0,0,0,0,0,0,0,0,0,0,0,0,0,0,0,0,0,0,0,0,0,0,0,0,0,0,0,0,0,0,0,0,0,0,0,0,0,0,0,0,0,0,0,0,0,0,0,0,0,0,0,0,0,0,0,0,0,0,0,0,0,0,0,0,0],"sum_hessian":[5.40551E5,2.99335E5,2.41216E5,1.5747E5,1.41865E5,4.9411E4,1.91805E5,1.56821E5,6.49E2,1.6737E4,1.25128E5,4.6E3,4.4811E4,3.3955E4,1.5785E5,2.1187E4,1.35634E5,1.63E2,4.86E2,6.697E3,1.004E4,6.4007E4,6.1121E4,2.34E2,4.366E3,2.2507E4,2.2304E4,2.1263E4,1.2692E4,1.49138E5,8.712E3,1.694E3,1.9493E4,6.8765E4,6.6869E4,7.4E1,8.9E1,1.68E2,3.18E2,3.836E3,2.861E3,5.58E2,9.482E3,1.3278E4,5.0729E4,3.3062E4,2.8059E4,1.41E2,9.3E1,3.981E3,3.85E2,1.1795E4,1.0712E4,2.0205E4,2.099E3,7.66E3,1.3603E4,5.209E3,7.483E3,7.6942E4,7.2196E4,4.301E3,4.411E3,1.207E3,4.87E2,1.7261E4,2.232E3,6.6267E4,2.498E3,4.3999E4,2.287E4,6E0,6.8E1,8E1,8.8E1,9.1E1,2.27E2,1.37E3,2.466E3,2.595E3,2.66E2,2.69E2,2.89E2,8.086E3,1.396E3,5.832E3,7.446E3,5.0136E4,5.93E2,3.066E4,2.402E3,2.5791E4,2.268E3,6E0,1.35E2,5.4E1,3.9E1,1.415E3,2.566E3,2.09E2,1.76E2,1.1422E4,3.73E2,3.24E2,1.0388E4,1.349E3,1.8856E4,2.021E3,7.8E1,5.922E3,1.738E3,6.56E3,7.043E3,2.528E3,2.681E3,4.658E3,2.825E3,7.2122E4,4.82E3,6.4379E4,7.817E3,2.198E3,2.103E3,2.254E3,2.157E3],"tree_param":{"num_deleted":"0","num_feature":"16","num_nodes":"125","size_leaf_vector":"1"}},{"base_weights":[-2.2147095E-1,-8.56447E2,1.061788E3,-9.4196826E2,2.9078534E2,2.2344958E3,7.585981E2,-6.4843494E2,-1.2356172E3,-8.716069E1,1.0935353E3,2.1237722E3,4.2277227E3,6.573493E2,2.1593503E3,-1.399771E2,-1.01477686E3,-5.3125305E2,-1.3282278E3,1.1566797E3,-2.478741E2,3.101074E3,-8.7659845E2,3.4351213E3,1.9907959E3,3.4029182E3,5.008616E3,5.718227E2,2.0101876E3,1.6173651E3,2.9501816E3,-2.2100081E2,4.7130405E3,-8.884676E2,-1.3608378E3,-3.6806964E2,-1.4048195E3,-1.5375505E3,-1.0781542E3,6.5437225E2,1.8034075E3,-2.7527518E2,5.5305273E3,4.0715771E3,1.7352788E3,-1.9054683E3,-2.5679312E2,1.9321165E2,3.6066165E3,2.3509805E3,1.6299592E3,4.9706025E3,3.0176382E3,6.4795566E3,4.68224E3,1.4390879E3,4.5320248E2,3.3002056E3,1.8444396E3,2.7235198E3,1.3720396E3,4.244598E3,2.6490486E3,-4.9823196E1,-1.8419279E-2,3.5124567E2,1.1810628E2,-4.7687714E1,2.0315126E-1,-6.538032E1,-1.6786003E2,-2.381342E1,1.3506151E2,-1.6595776E2,-5.9551876E1,-8.008131E1,-4.663405E1,-5.8168304E1,-1.9676844E1,4.9891804E1,-6.099254E0,7.227102E1,1.4877574E2,4.7248073E0,-3.300879E1,6.284348E2,2.0061415E2,1.8347447E2,2.432834E2,1.6263145E2,7.686463E1,-1.1949697E2,-8.459814E1,2.3889471E1,-3.2861782E1,3.6689114E1,-3.474352E1,1.6994717E2,2.864675E2,1.1533994E2,2.8867453E2,7.373779E1,1.5936331E2,2.6505292E2,1.2378759E2,1.3921472E2,2.0291551E2,3.6936276E2,2.679056E2,2.1855522E2,3.2319656E2,-5.0674603E1,7.699708E1,3.6854496E1,8.120159E0,4.0115156E0,1.719584E2,1.13585625E2,7.108701E1,1.6648021E2,1.09177574E2,8.638497E1,4.7682404E1,3.2705425E1,2.1839268E2,1.1754755E2,1.7635289E2],"categories":[],"categories_nodes":[],"categories_segments":[],"categories_sizes":[],"default_left":[0,0,0,0,0,0,0,0,0,0,0,0,0,0,0,0,0,0,0,0,0,0,0,0,0,0,0,0,0,0,0,0,0,0,0,0,0,0,0,0,0,0,0,0,0,0,0,0,0,0,0,0,0,0,0,0,0,0,0,0,0,0,0,0,0,0,0,0,0,0,0,0,0,0,0,0,0,0,0,0,0,0,0,0,0,0,0,0,0,0,0,0,0,0,0,0,0,0,0,0,0,0,0,0,0,0,0,0,0,0,0,0,0,0,0,0,0,0,0,0,0,0,0,0,0,0,0],"id":7,"left_children":[1,3,5,7,9,11,13,15,17,19,21,23,25,27,29,31,33,35,37,39,41,43,45,47,49,51,53,55,57,59,61,63,65,67,69,71,73,75,77,79,81,83,85,87,89,91,93,95,97,99,101,103,105,107,109,111,113,115,117,119,121,123,125,-1,-1,-1,-1,-1,-1,-1,-1,-1,-1,-1,-1,-1,-1,-1,-1,-1,-1,-1,-1,-1,-1,-1,-1,-1,-1,-1,-1,-1,-1,-1,-1,-1,-1,-1,-1,-1,-1,-1,-1,-1,-1,-1,-1,-1,-1,-1,-1,-1,-1,-1,-1,-1,-1,-1,-1,-1,-1,-1,-1,-1,-1,-1,-1],"loss_changes":[4.9107534E11,2.9335077E10,8.570651E10,2.3983063E10,6.2934415E9,1.0919707E10,2.7163353E10,2.5919984E10,9.072755E9,2.8197023E9,2.6264711E10,8.174125E9,1.6607928E9,2.066677E10,5.529129E9,2.2915326E10,3.534119E9,2.303828E9,6.433358E9,5.231378E8,1.979279E9,4.3525366E9,2.137078E9,2.3999857E9,5.532549E9,7.520778E8,6.110495E8,1.7283203E10,2.264875E9,2.0757545E9,2.034774E9,9.80684E9,5.184719E9,3.4528748E9,2.2936822E9,4.525075E9,1.0371799E9,2.5919816E9,3.2674406E9,2.4277382E8,2.9151667E8,1.7695918E9,5.800246E8,5.958267E8,4.0596685E8,1.2628736E8,6.1598694E8,1.0516535E8,1.7883873E9,3.2099205E9,5.1393864E9,1.9216077E8,2.368768E8,2.0472218E8,5.798646E8,5.001523E9,1.2200987E10,5.4025114E8,1.6970158E9,4.4763034E8,9.319547E8,4.3482317E8,1.1069481E9,0E0,0E0,0E0,0E0,0E0,0E0,0E0,0E0,0E0,0E0,0E0,0E0,0E0,0E0,0E0,0E0,0E0,0E0,0E0,0E0,0E0,0E0,0E0,0E0,0E0,0E0,0E0,0E0,0E0,0E0,0E0,0E0,0E0,0E0,0E0,0E0,0E0,0E0,0E0,0E0,0E0,0E0,0E0,0E0,0E0,0E0,0E0,0E0,0E0,0E0,0E0,0E0,0E0,0E0,0E0,0E0,0E0,0E0,0E0,0E0,0E0,0E0,0E0,0E0],"parents":[2147483647,0,0,1,1,2,2,3,3,4,4,5,5,6,6,7,7,8,8,9,9,10,10,11,11,12,12,13,13,14,14,15,15,16,16,17,17,18,18,19,19,20,20,21,21,22,22,23,23,24,24,25,25,26,26,27,27,28,28,29,29,30,30,31,31,32,32,33,33,34,34,35,35,36,36,37,37,38,38,39,39,40,40,41,41,42,42,43,43,44,44,45,45,46,46,47,47,48,48,49,49,50,50,51,51,52,52,53,53,54,54,55,55,56,56,57,57,58,58,59,59,60,60,61,61,62,62],"right_children":[2,4,6,8,10,12,14,16,18,20,22,24,26,28,30,32,34,36,38,40,42,44,46,48,50,52,54,56,58,60,62,64,66,68,70,72,74,76,78,80,82,84,86,88,90,92,94,96,98,100,102,104,106,108,110,112,114,116,118,120,122,124,126,-1,-1,-1,-1,-1,-1,-1,-1,-1,-1,-1,-1,-1,-1,-1,-1,-1,-1,-1,-1,-1,-1,-1,-1,-1,-1,-1,-1,-1,-1,-1,-1,-1,-1,-1,-1,-1,-1,-1,-1,-1,-1,-1,-1,-1,-1,-1,-1,-1,-1,-1,-1,-1,-1,-1,-1,-1,-1,-1,-1,-1,-1,-1,-1],"split_conditions":[1E0,4.8E1,1E0,1E0,5.1E1,1.2E1,4.8E1,1.94E3,2.6E2,2.6E2,2.4E1,2.3E2,3E0,3E1,5E1,6E0,1.43E4,1.028E3,4E0,4E0,6E0,2E0,2.5E1,4E1,1E0,4.4E2,4.4E2,2.9E2,2.6E2,4.4E2,4.4E2,2.43E2,5.66E2,1.028E3,6E0,1.01E3,1.032E3,1.43E4,2.8E1,8.28E2,2.1E2,1E0,2.64E2,4.37E3,2.6E2,1.09E3,5E0,8.84E2,2.1E2,1.101E3,1.43E4,1E0,1.254E4,2.014E3,1.481E4,4E1,1E0,4E1,7E0,5.45E2,1E0,4E1,8.4E3,-4.9823196E1,-1.8419279E-2,3.5124567E2,1.1810628E2,-4.7687714E1,2.0315126E-1,-6.538032E1,-1.6786003E2,-2.381342E1,1.3506151E2,-1.6595776E2,-5.9551876E1,-8.008131E1,-4.663405E1,-5.8168304E1,-1.9676844E1,4.9891804E1,-6.099254E0,7.227102E1,1.4877574E2,4.7248073E0,-3.300879E1,6.284348E2,2.0061415E2,1.8347447E2,2.432834E2,1.6263145E2,7.686463E1,-1.1949697E2,-8.459814E1,2.3889471E1,-3.2861782E1,3.6689114E1,-3.474352E1,1.6994717E2,2.864675E2,1.1533994E2,2.8867453E2,7.373779E1,1.5936331E2,2.6505292E2,1.2378759E2,1.3921472E2,2.0291551E2,3.6936276E2,2.679056E2,2.1855522E2,3.2319656E2,-5.0674603E1,7.699708E1,3.6854496E1,8.120159E0,4.0115156E0,1.719584E2,1.13585625E2,7.108701E1,1.6648021E2,1.09177574E2,8.638497E1,4.7682404E1,3.2705425E1,2.1839268E2,1.1754755E2,1.7635289E2],"split_indices":[2,11,1,7,11,9,11,6,6,6,10,6,10,10,11,1,6,0,1,1,1,1,10,6,7,6,6,6,6,6,6,0,0,0,1,0,0,6,10,0,6,7,0,6,6,6,1,0,6,0,6,15,6,8,6,6,7,6,9,0,7,6,6,0,0,0,0,0,0,0,0,0,0,0,0,0,0,0,0,0,0,0,0,0,0,0,0,0,0,0,0,0,0,0,0,0,0,0,0,0,0,0,0,0,0,0,0,0,0,0,0,0,0,0,0,0,0,0,0,0,0,0,0,0,0,0,0],"split_type":[0,0,0,0,0,0,0,0,0,0,0,0,0,0,0,0,0,0,0,0,0,0,0,0,0,0,0,0,0,0,0,0,0,0,0,0,0,0,0,0,0,0,0,0,0,0,0,0,0,0,0,0,0,0,0,0,0,0,0,0,0,0,0,0,0,0,0,0,0,0,0,0,0,0,0,0,0,0,0,0,0,0,0,0,0,0,0,0,0,0,0,0,0,0,0,0,0,0,0,0,0,0,0,0,0,0,0,0,0,0,0,0,0,0,0,0,0,0,0,0,0,0,0,0,0,0,0],"sum_hessian":[5.40045E5,2.9899E5,2.41055E5,2.78248E5,2.0742E4,4.9518E4,1.91537E5,1.39153E5,1.39095E5,1.4103E4,6.639E3,4.6914E4,2.604E3,1.78627E5,1.291E4,5.8274E4,8.0879E4,1.6164E4,1.22931E5,1.613E3,1.249E4,3.288E3,3.351E3,4.317E3,4.2597E4,1.269E3,1.335E3,1.68007E5,1.062E4,7.662E3,5.248E3,5.7318E4,9.56E2,5.9255E4,2.1624E4,1.3621E4,2.543E3,6.6915E4,5.6016E4,9.09E2,7.04E2,1.2432E4,5.8E1,1.921E3,1.367E3,1.259E3,2.092E3,2.17E2,4.1E3,2.1315E4,2.1282E4,2.48E2,1.021E3,2.39E2,1.096E3,2.0213E4,1.47794E5,1.207E3,9.413E3,1.389E3,6.273E3,9.88E2,4.26E3,1.2695E4,4.4623E4,4.81E2,4.75E2,5.5216E4,4.039E3,2.1064E4,5.6E2,1.3158E4,4.63E2,2.54E2,2.289E3,6.0504E4,6.411E3,4.9815E4,6.201E3,6.3E2,2.79E2,5.41E2,1.63E2,6.341E3,6.091E3,9E0,4.9E1,1.279E3,6.42E2,1.56E2,1.211E3,3.82E2,8.77E2,7.38E2,1.354E3,1.35E2,8.2E1,3.737E3,3.63E2,2.1045E4,2.7E2,1.9355E4,1.927E3,2.18E2,3E1,8.37E2,1.84E2,1.29E2,1.1E2,9.36E2,1.6E2,7.98E2,1.9415E4,7.4785E4,7.3009E4,5E1,1.157E3,4.679E3,4.734E3,6.52E2,7.37E2,3.389E3,2.884E3,3.3E1,9.55E2,3.183E3,1.077E3],"tree_param":{"num_deleted":"0","num_feature":"16","num_nodes":"127","size_leaf_vector":"1"}},{"base_weights":[-6.663221E-1,-5.3491726E1,2.1068135E3,6.635525E2,-1.8926929E2,3.1142922E3,-8.4672626E2,8.716705E2,-3.2366843E2,-2.910301E2,7.7847754E2,3.35819E3,1.5833168E3,-1.8079656E3,-2.4362376E2,7.146328E2,1.9194766E3,-8.8735834E2,3.163254E2,-5.5058875E2,-7.398709E-1,-4.175671E2,1.1362906E3,2.82153E3,3.961093E3,9.7090717E2,2.3174275E3,-2.0770222E3,-1.5085063E3,-7.0602094E2,2.4192851E2,1.1065301E2,1.1091403E3,2.962693E3,1.6920161E3,1.5585408E2,-1.2280585E3,2.715025E3,1.3986212E2,-4.0771503E2,-1.2330785E3,1.071144E3,-1.4296906E2,-5.6841896E1,-1.0691698E3,1.6004641E3,2.4087975E2,4.1350664E3,2.59509E3,6.3746553E3,3.6701133E3,3.0818708E3,5.8616077E2,2.9281904E3,1.9509785E3,-2.5139243E3,-1.8267512E3,-1.4178722E3,-2.125708E3,-1.1704778E3,4.9894085E1,1.0209376E3,-1.1805101E2,1.8959536E1,-3.4317314E1,-2.422304E1,6.046182E1,1.1520149E2,2.0085439E2,1.253719E2,7.372567E1,-2.085954E1,5.819126E1,-6.320703E1,1.8404155E2,3.220851E2,9.7756035E1,-2.6957262E0,4.5313892E1,2.7803709E1,-2.4304155E1,-8.230608E1,-2.606572E1,6.538384E1,-5.212269E1,-8.357571E0,9.910026E1,6.983849E1,-3.487046E1,-1.3350822E2,-3.7396762E0,9.584133E1,4.4574184E0,4.8315144E1,3.808881E0,2.790891E2,1.8437372E2,1.0756284E2,1.7459483E2,2.9636008E2,5.7822424E2,1.95893E2,9.948636E1,2.1035266E2,8.297013E1,-1.9021534E0,7.6505455E1,5.848649E1,1.6304842E2,6.0394417E1,1.07772484E2,-8.637479E1,-1.2997012E2,-8.923708E1,-1.443419E2,-8.088747E1,-6.0334805E1,-5.8348244E1,-1.2208181E2,-8.827499E1,-1.6723911E1,5.0038322E1,-3.5551277E1,6.8998314E1,-5.6990902E1,-4.1773263E-2,-4.8834007E1],"categories":[],"categories_nodes":[],"categories_segments":[],"categories_sizes":[],"default_left":[0,0,0,0,0,0,0,0,0,0,0,0,0,0,0,0,0,0,0,0,0,0,0,0,0,0,0,0,0,0,0,0,0,0,0,0,0,0,0,0,0,0,0,0,0,0,0,0,0,0,0,0,0,0,0,0,0,0,0,0,0,0,0,0,0,0,0,0,0,0,0,0,0,0,0,0,0,0,0,0,0,0,0,0,0,0,0,0,0,0,0,0,0,0,0,0,0,0,0,0,0,0,0,0,0,0,0,0,0,0,0,0,0,0,0,0,0,0,0,0,0,0,0,0,0,0,0],"id":8,"left_children":[1,3,5,7,9,11,13,15,17,19,21,23,25,27,29,31,33,35,37,39,41,43,45,47,49,51,53,55,57,59,61,63,65,67,69,71,73,75,77,79,81,83,85,87,89,91,93,95,97,99,101,103,105,107,109,111,113,115,117,119,121,123,125,-1,-1,-1,-1,-1,-1,-1,-1,-1,-1,-1,-1,-1,-1,-1,-1,-1,-1,-1,-1,-1,-1,-1,-1,-1,-1,-1,-1,-1,-1,-1,-1,-1,-1,-1,-1,-1,-1,-1,-1,-1,-1,-1,-1,-1,-1,-1,-1,-1,-1,-1,-1,-1,-1,-1,-1,-1,-1,-1,-1,-1,-1,-1,-1],"loss_changes":[6.0165247E10,5.1329E10,3.932556E10,1.7246052E10,4.365367E10,3.6741857E9,1.948598E9,1.1405545E10,5.27276E9,3.0221965E10,1.8050566E10,2.7387085E9,6.073756E8,1.0128717E8,4.6424957E8,1.4365454E10,2.1389066E9,2.76218E9,2.8969882E9,2.0648182E10,2.8866095E10,2.2829755E9,1.3492908E10,1.3277348E9,2.785788E9,6.000232E8,1.3215616E8,6.976154E7,3.1500672E7,3.718625E8,2.8307168E8,5.0987484E9,5.8178724E9,1.1130409E9,1.3122867E9,1.1060362E9,1.0422436E9,1.3155753E9,9.471193E8,1.3226002E10,1.0775618E10,1.1090426E10,8.590319E9,5.823368E9,5.50968E9,1.02226E10,1.3243479E9,4.067932E8,1.5213322E9,9.276805E8,1.4792663E9,1.754798E8,3.7008595E8,1.3019098E8,5.634931E7,1.1979008E7,1.4264448E7,2.08832E7,2.0473504E7,3.257289E8,2.930207E8,2.4904454E8,6.954466E7,0E0,0E0,0E0,0E0,0E0,0E0,0E0,0E0,0E0,0E0,0E0,0E0,0E0,0E0,0E0,0E0,0E0,0E0,0E0,0E0,0E0,0E0,0E0,0E0,0E0,0E0,0E0,0E0,0E0,0E0,0E0,0E0,0E0,0E0,0E0,0E0,0E0,0E0,0E0,0E0,0E0,0E0,0E0,0E0,0E0,0E0,0E0,0E0,0E0,0E0,0E0,0E0,0E0,0E0,0E0,0E0,0E0,0E0,0E0,0E0,0E0,0E0,0E0,0E0],"parents":[2147483647,0,0,1,1,2,2,3,3,4,4,5,5,6,6,7,7,8,8,9,9,10,10,11,11,12,12,13,13,14,14,15,15,16,16,17,17,18,18,19,19,20,20,21,21,22,22,23,23,24,24,25,25,26,26,27,27,28,28,29,29,30,30,31,31,32,32,33,33,34,34,35,35,36,36,37,37,38,38,39,39,40,40,41,41,42,42,43,43,44,44,45,45,46,46,47,47,48,48,49,49,50,50,51,51,52,52,53,53,54,54,55,55,56,56,57,57,58,58,59,59,60,60,61,61,62,62],"right_children":[2,4,6,8,10,12,14,16,18,20,22,24,26,28,30,32,34,36,38,40,42,44,46,48,50,52,54,56,58,60,62,64,66,68,70,72,74,76,78,80,82,84,86,88,90,92,94,96,98,100,102,104,106,108,110,112,114,116,118,120,122,124,126,-1,-1,-1,-1,-1,-1,-1,-1,-1,-1,-1,-1,-1,-1,-1,-1,-1,-1,-1,-1,-1,-1,-1,-1,-1,-1,-1,-1,-1,-1,-1,-1,-1,-1,-1,-1,-1,-1,-1,-1,-1,-1,-1,-1,-1,-1,-1,-1,-1,-1,-1,-1,-1,-1,-1,-1,-1,-1,-1,-1,-1,-1,-1,-1],"split_conditions":[5.1E1,6E0,2.4E1,1E0,2.9E1,1E0,2.5E1,4.5E1,1E0,1E0,6E0,2E0,1E0,1E0,1E0,2.014E3,4.4E2,4.8E2,2E0,1E0,3.7E2,3.1E1,3.2E1,2.6E2,3.5E2,2.6E2,3E0,1.09E3,1E0,1E0,1.42E3,3.2E1,2E0,1E0,3E0,1E0,1.11E3,2.7E1,2.015E3,1.7E2,1E0,1.036E3,1.11E3,2E0,2E0,1E0,4.4E2,1.7E1,3.97E3,3.4E2,1E0,2.014E3,1E0,2.47E2,1.7E3,1E2,2.249E4,3.9E3,4.1E1,1E0,3E0,1E0,1E0,1.8959536E1,-3.4317314E1,-2.422304E1,6.046182E1,1.1520149E2,2.0085439E2,1.253719E2,7.372567E1,-2.085954E1,5.819126E1,-6.320703E1,1.8404155E2,3.220851E2,9.7756035E1,-2.6957262E0,4.5313892E1,2.7803709E1,-2.4304155E1,-8.230608E1,-2.606572E1,6.538384E1,-5.212269E1,-8.357571E0,9.910026E1,6.983849E1,-3.487046E1,-1.3350822E2,-3.7396762E0,9.584133E1,4.4574184E0,4.8315144E1,3.808881E0,2.790891E2,1.8437372E2,1.0756284E2,1.7459483E2,2.9636008E2,5.7822424E2,1.95893E2,9.948636E1,2.1035266E2,8.297013E1,-1.9021534E0,7.6505455E1,5.848649E1,1.6304842E2,6.0394417E1,1.07772484E2,-8.637479E1,-1.2997012E2,-8.923708E1,-1.443419E2,-8.088747E1,-6.0334805E1,-5.8348244E1,-1.2208181E2,-8.827499E1,-1.6723911E1,5.0038322E1,-3.5551277E1,6.8998314E1,-5.6990902E1,-4.1773263E-2,-4.8834007E1],"split_indices":[11,10,10,12,10,12,10,11,4,5,11,5,4,5,5,8,6,6,4,12,6,10,11,6,6,6,4,6,15,4,6,11,11,5,10,5,0,14,8,6,4,0,0,11,11,12,6,10,6,6,15,8,5,0,6,6,6,6,14,3,4,15,15,0,0,0,0,0,0,0,0,0,0,0,0,0,0,0,0,0,0,0,0,0,0,0,0,0,0,0,0,0,0,0,0,0,0,0,0,0,0,0,0,0,0,0,0,0,0,0,0,0,0,0,0,0,0,0,0,0,0,0,0,0,0,0,0],"split_type":[0,0,0,0,0,0,0,0,0,0,0,0,0,0,0,0,0,0,0,0,0,0,0,0,0,0,0,0,0,0,0,0,0,0,0,0,0,0,0,0,0,0,0,0,0,0,0,0,0,0,0,0,0,0,0,0,0,0,0,0,0,0,0,0,0,0,0,0,0,0,0,0,0,0,0,0,0,0,0,0,0,0,0,0,0,0,0,0,0,0,0,0,0,0,0,0,0,0,0,0,0,0,0,0,0,0,0,0,0,0,0,0,0,0,0,0,0,0,0,0,0,0,0,0,0,0,0],"sum_hessian":[5.40428E5,5.27214E5,1.3214E4,8.3937E4,4.43277E5,9.853E3,3.361E3,6.9323E4,1.4614E4,4.01101E5,4.2176E4,8.498E3,1.355E3,1.295E3,2.066E3,6.0289E4,9.034E3,7.77E3,6.844E3,2.11759E5,1.89342E5,9.712E3,3.2464E4,4.499E3,3.999E3,7.4E2,6.15E2,6.79E2,6.16E2,1.058E3,1.008E3,2.3821E4,3.6468E4,1.615E3,7.419E3,1.913E3,5.857E3,4.68E2,6.376E3,1.75104E5,3.6655E4,2.218E4,1.67162E5,6.252E3,3.46E3,2.138E4,1.1084E4,6.59E2,3.84E3,4.28E2,3.571E3,1.13E2,6.27E2,2.28E2,3.87E2,2.44E2,4.35E2,5.4E2,7.6E1,6.55E2,4.03E2,3.18E2,6.9E2,1.7818E4,6.003E3,2.155E3,3.4313E4,9.96E2,6.19E2,1.56E3,5.859E3,1.22E3,6.93E2,5.815E3,4.2E1,7.8E1,3.9E2,5.09E3,1.286E3,1.3167E4,1.61937E5,2.3194E4,1.3461E4,1.9948E4,2.232E3,1.65282E5,1.88E3,1.912E3,4.34E3,1.325E3,2.135E3,1.7679E4,3.701E3,2.05E3,9.034E3,1.53E2,5.06E2,2.571E3,1.269E3,3.96E2,3.2E1,3.111E3,4.6E2,6.2E1,5.1E1,3.78E2,2.49E2,3.7E1,1.91E2,8.5E1,3.02E2,2.6E1,2.18E2,4.21E2,1.4E1,2.74E2,2.66E2,2E1,5.6E1,3.82E2,2.73E2,1.79E2,2.24E2,2.73E2,4.5E1,6.08E2,8.2E1],"tree_param":{"num_deleted":"0","num_feature":"16","num_nodes":"127","size_leaf_vector":"1"}},{"base_weights":[1.2529705E0,-7.9939655E2,9.9358105E2,-1.0840033E3,-4.8314377E2,2.1140476E3,7.052225E2,-1.1003824E3,2.7475774E3,4.8580182E2,-6.129272E2,3.2274893E3,1.9609995E3,6.162309E2,1.9445634E3,-1.1666241E3,-2.0111847E2,5.825401E3,4.0358906E1,-2.63591E3,5.9094617E2,-7.0113495E2,5.628091E2,1.9156424E2,3.3495908E3,1.8984381E3,4.257396E3,5.396843E2,1.8434784E3,1.4741069E3,2.627776E3,-3.997215E2,-1.2288806E3,1.7516962E2,-7.7338873E2,7.832094E2,1.863996E3,-3.0670392E2,2.3434067E3,-2.7562244E3,-1.2351589E3,3.4187163E3,3.2458575E2,-9.545999E2,-4.025624E2,1.2752884E2,1.4656757E3,3.0994846E3,7.3872955E1,2.9391587E3,4.1480757E3,1.6261605E3,2.1913267E3,3.703482E3,4.720157E3,1.4755465E3,4.4396442E2,1.4502975E3,2.2877124E3,2.4902778E3,1.2534796E3,3.7921516E3,2.3668142E3,-3.8147537E1,4.1493706E1,-5.9939137E1,-1.4047282E2,-1.629804E1,1.4779819E2,-5.533507E1,1.2057784E1,1.8166083E2,-9.348152E1,1.2298454E1,-5.0723427E1,1.2671503E2,-1.7113825E1,-1.451598E2,-1.123893E2,-8.138E1,-3.545752E1,2.3988672E2,-9.609378E1,-3.8081738E1,4.5423866E1,-2.7904058E1,-6.1209637E1,-4.0684204E1,-7.3299103E0,-1.3775908E1,3.2541348E1,1.7087657E2,-2.2454542E1,1.7580162E2,-5.822412E0,-1.2050897E1,7.024745E1,1.6854543E2,1.13508804E2,3.8260272E2,1.8184145E2,-9.500224E1,8.274673E1,1.9119205E2,1.0474341E2,-4.378079E1,1.8656316E2,2.0813579E2,2.6718747E2,6.3664368E1,1.7542613E2,9.961307E0,3.5348896E1,9.431456E1,5.026338E1,1.9835648E2,1.0342846E2,9.282209E1,1.7578798E2,4.182814E1,8.311117E1,1.4719681E2,2.5701996E2,1.09788956E2,1.7033316E2],"categories":[],"categories_nodes":[],"categories_segments":[],"categories_sizes":[],"default_left":[0,0,0,0,0,0,0,0,0,0,0,0,0,0,0,0,0,0,0,0,0,0,0,0,0,0,0,0,0,0,0,0,0,0,0,0,0,0,0,0,0,0,0,0,0,0,0,0,0,0,0,0,0,0,0,0,0,0,0,0,0,0,0,0,0,0,0,0,0,0,0,0,0,0,0,0,0,0,0,0,0,0,0,0,0,0,0,0,0,0,0,0,0,0,0,0,0,0,0,0,0,0,0,0,0,0,0,0,0,0,0,0,0,0,0,0,0,0,0,0,0,0,0,0,0],"id":9,"left_children":[1,3,5,7,9,11,13,15,17,19,21,23,25,27,29,31,33,35,37,39,41,43,45,47,49,51,53,55,57,59,61,63,65,67,69,-1,71,73,75,77,79,81,83,85,87,89,91,93,95,97,99,101,103,105,107,109,111,113,115,117,119,121,123,-1,-1,-1,-1,-1,-1,-1,-1,-1,-1,-1,-1,-1,-1,-1,-1,-1,-1,-1,-1,-1,-1,-1,-1,-1,-1,-1,-1,-1,-1,-1,-1,-1,-1,-1,-1,-1,-1,-1,-1,-1,-1,-1,-1,-1,-1,-1,-1,-1,-1,-1,-1,-1,-1,-1,-1,-1,-1,-1,-1,-1,-1],"loss_changes":[4.2977106E11,2.6945798E10,7.80424E10,9.891889E9,1.783296E10,8.4187546E9,2.1186888E10,9.346236E9,5.5907656E9,5.499742E9,1.2969943E10,2.213499E9,6.2367826E9,1.6837288E10,4.132823E9,6.976766E9,2.31847E9,1.2209083E10,2.8686893E8,8.861338E7,1.2205347E10,8.803201E9,3.429917E9,7.916998E7,1.8695987E9,3.37109E9,2.778112E8,1.5113388E10,1.8346721E9,1.7061427E9,1.585365E9,4.9018967E9,6.426657E9,9.053402E9,1.4445501E9,0E0,1.4930547E9,1.222922E8,2.4963392E7,3.0986496E7,8.135008E6,1.028308E10,9.39498E9,6.7250586E9,5.6207657E9,1.242461E9,1.0611866E10,1.2465736E7,9.42268E7,1.0887598E9,3.4600243E9,2.2286418E9,3.2018432E9,7.056282E7,1.9466752E8,6.432676E9,9.852637E9,1.0817628E9,1.8095104E9,8.768051E8,1.066412E9,1.0815826E9,7.553208E8,0E0,0E0,0E0,0E0,0E0,0E0,0E0,0E0,0E0,0E0,0E0,0E0,0E0,0E0,0E0,0E0,0E0,0E0,0E0,0E0,0E0,0E0,0E0,0E0,0E0,0E0,0E0,0E0,0E0,0E0,0E0,0E0,0E0,0E0,0E0,0E0,0E0,0E0,0E0,0E0,0E0,0E0,0E0,0E0,0E0,0E0,0E0,0E0,0E0,0E0,0E0,0E0,0E0,0E0,0E0,0E0,0E0,0E0,0E0,0E0,0E0,0E0],"parents":[2147483647,0,0,1,1,2,2,3,3,4,4,5,5,6,6,7,7,8,8,9,9,10,10,11,11,12,12,13,13,14,14,15,15,16,16,17,17,18,18,19,19,20,20,21,21,22,22,23,23,24,24,25,25,26,26,27,27,28,28,29,29,30,30,31,31,32,32,33,33,34,34,36,36,37,37,38,38,39,39,40,40,41,41,42,42,43,43,44,44,45,45,46,46,47,47,48,48,49,49,50,50,51,51,52,52,53,53,54,54,55,55,56,56,57,57,58,58,59,59,60,60,61,61,62,62],"right_children":[2,4,6,8,10,12,14,16,18,20,22,24,26,28,30,32,34,36,38,40,42,44,46,48,50,52,54,56,58,60,62,64,66,68,70,-1,72,74,76,78,80,82,84,86,88,90,92,94,96,98,100,102,104,106,108,110,112,114,116,118,120,122,124,-1,-1,-1,-1,-1,-1,-1,-1,-1,-1,-1,-1,-1,-1,-1,-1,-1,-1,-1,-1,-1,-1,-1,-1,-1,-1,-1,-1,-1,-1,-1,-1,-1,-1,-1,-1,-1,-1,-1,-1,-1,-1,-1,-1,-1,-1,-1,-1,-1,-1,-1,-1,-1,-1,-1,-1,-1,-1,-1,-1,-1,-1],"split_conditions":[1E0,1E0,1E0,6E0,3.7E2,2.9E2,4.8E1,4.8E1,2.7E1,4E1,4.8E1,4E1,5E1,3E1,5E1,1.7E2,2.4E1,1.19E3,1.27E3,4.8E1,7E1,4E0,5.1E1,1E0,1E0,2E0,1.6E1,2.3E2,1E0,4.4E2,4.4E2,1.4E2,2.613E4,1E0,2.9E1,7.832094E2,2E0,1.6E2,2E0,2.4173E4,5.2E1,3E0,1.7E2,2E0,1E0,4E0,2.4E1,2.6E1,2.4163E4,1.67E2,7E1,3E2,4.3E2,3.1E2,2E0,2.1E2,1E0,7E0,3.7E2,1E0,1E0,1E0,1.504E4,-3.8147537E1,4.1493706E1,-5.9939137E1,-1.4047282E2,-1.629804E1,1.4779819E2,-5.533507E1,1.2057784E1,1.8166083E2,-9.348152E1,1.2298454E1,-5.0723427E1,1.2671503E2,-1.7113825E1,-1.451598E2,-1.123893E2,-8.138E1,-3.545752E1,2.3988672E2,-9.609378E1,-3.8081738E1,4.5423866E1,-2.7904058E1,-6.1209637E1,-4.0684204E1,-7.3299103E0,-1.3775908E1,3.2541348E1,1.7087657E2,-2.2454542E1,1.7580162E2,-5.822412E0,-1.2050897E1,7.024745E1,1.6854543E2,1.13508804E2,3.8260272E2,1.8184145E2,-9.500224E1,8.274673E1,1.9119205E2,1.0474341E2,-4.378079E1,1.8656316E2,2.0813579E2,2.6718747E2,6.3664368E1,1.7542613E2,9.961307E0,3.5348896E1,9.431456E1,5.026338E1,1.9835648E2,1.0342846E2,9.282209E1,1.7578798E2,4.182814E1,8.311117E1,1.4719681E2,2.5701996E2,1.09788956E2,1.7033316E2],"split_indices":[2,5,1,1,6,6,11,11,14,6,11,6,11,10,11,6,10,6,6,11,6,1,11,14,5,5,10,6,5,6,6,6,6,3,10,0,4,6,4,14,14,4,6,4,4,1,10,10,14,14,6,6,6,6,5,6,5,9,6,5,5,5,6,0,0,0,0,0,0,0,0,0,0,0,0,0,0,0,0,0,0,0,0,0,0,0,0,0,0,0,0,0,0,0,0,0,0,0,0,0,0,0,0,0,0,0,0,0,0,0,0,0,0,0,0,0,0,0,0,0,0,0,0,0,0],"split_type":[0,0,0,0,0,0,0,0,0,0,0,0,0,0,0,0,0,0,0,0,0,0,0,0,0,0,0,0,0,0,0,0,0,0,0,0,0,0,0,0,0,0,0,0,0,0,0,0,0,0,0,0,0,0,0,0,0,0,0,0,0,0,0,0,0,0,0,0,0,0,0,0,0,0,0,0,0,0,0,0,0,0,0,0,0,0,0,0,0,0,0,0,0,0,0,0,0,0,0,0,0,0,0,0,0,0,0,0,0,0,0,0,0,0,0,0,0,0,0,0,0,0,0,0,0],"sum_hessian":[5.40926E5,2.99377E5,2.41549E5,1.57571E5,1.41806E5,4.9439E4,1.9211E5,1.56901E5,6.7E2,1.675E4,1.25056E5,5.972E3,4.3467E4,1.79241E5,1.2869E4,1.46136E5,1.0765E4,3.13E2,3.57E2,5.45E2,1.6205E4,1.16329E5,8.727E3,2.31E2,5.741E3,4.2316E4,1.151E3,1.68719E5,1.0522E4,7.623E3,5.246E3,1.0973E4,1.35163E5,6.495E3,4.27E3,8.9E1,2.24E2,3.11E2,4.6E1,5.01E2,4.4E1,1.394E3,1.4811E4,6.2916E4,5.3413E4,5.889E3,2.838E3,8E0,2.23E2,3.795E3,1.946E3,2.1933E4,2.0383E4,5.28E2,6.23E2,1.5654E4,1.53065E5,5.584E3,4.938E3,1.358E3,6.265E3,9.58E2,4.288E3,8.471E3,2.502E3,1.32639E5,2.524E3,5.504E3,9.91E2,3.214E3,1.056E3,1.52E2,7.2E1,1.75E2,1.36E2,4.3E1,3E0,3.85E2,1.16E2,2.4E1,2E1,1.108E3,2.86E2,5.178E3,9.633E3,2.5465E4,3.7451E4,2.0494E4,3.2919E4,3.327E3,2.562E3,1.405E3,1.433E3,7E0,1E0,1.81E2,4.2E1,2.304E3,1.491E3,2.46E2,1.7E3,1.77E2,2.1756E4,1.135E3,1.9248E4,3E0,5.25E2,3.33E2,2.9E2,1.4239E4,1.415E3,7.9288E4,7.3777E4,2.819E3,2.765E3,5.68E2,4.37E3,8.41E2,5.17E2,3.103E3,3.162E3,5.9E2,3.68E2,3.685E3,6.03E2],"tree_param":{"num_deleted":"0","num_feature":"16","num_nodes":"125","size_leaf_vector":"1"}},{"base_weights":[-2.1904888E0,-7.639496E2,9.416802E2,-4.7190643E2,-1.0583752E3,2.0047235E3,6.678753E2,-3.090805E0,-8.1054956E2,-1.1251617E3,-1.4222374E2,2.8335298E3,1.825874E3,5.8319147E2,1.8479769E3,-5.3096954E2,9.147137E2,-8.929101E2,2.6337283E2,-5.4315265E2,-1.2121521E3,2.339927E2,-6.906096E2,2.3059666E3,3.7027544E3,1.7409033E3,3.3621921E3,1.2225499E3,4.4579935E2,1.3882742E3,2.5120195E3,-5.858602E2,3.6331904E3,1.3584353E3,-5.790588E2,-1.138247E3,-6.914743E2,-1.3820117E2,1.0976482E3,-1.2718921E3,-3.2091293E2,-1.4476847E3,-9.726481E2,-3.9402243E2,2.5250208E3,-1.0502684E3,4.0924484E2,2.4624253E3,-1.8131117E2,5.0433354E3,2.7871816E3,2.0425652E3,1.4247466E3,2.7832554E3,3.9229897E3,8.519095E2,1.848819E3,3.7765906E2,1.5239333E3,2.2913171E3,1.1844427E3,4.1585176E3,2.2972114E3,-3.773535E1,-4.0074873E0,3.702334E2,-2.665633E1,6.2055298E1,2.6377548E2,-5.3739063E1,7.286413E1,-6.061147E1,7.215461E1,-3.2976772E1,-1.5720941E2,-2.7177626E1,9.305221E0,1.4863976E2,-3.8004444E1,-5.8809265E1,-1.32226E2,-8.0930483E-1,-6.2899517E1,-2.0010078E2,-7.084305E1,-6.09978E1,-3.3924862E1,3.432597E1,-2.9828787E1,1.4897366E2,7.4519424E1,-9.851431E1,-4.0982777E1,8.144076E1,1.1412924E1,1.5713568E2,1.0261269E2,6.550706E1,-1.7436458E2,3.6632187E2,1.4279576E2,1.8119603E2,7.111852E1,9.805044E1,1.6443895E2,6.213099E1,1.4873647E2,1.4662053E2,6.514376E1,1.8392961E2,2.5615924E2,7.387508E1,2.5284071E1,1.4551756E2,5.570051E1,3.0077417E1,7.0205293E0,9.608495E1,5.6395203E1,8.670641E1,1.6270041E2,3.9800346E1,7.859352E1,4.3630805E0,2.1742732E2,9.1772316E1,1.3813873E2],"categories":[],"categories_nodes":[],"categories_segments":[],"categories_sizes":[],"default_left":[0,0,0,0,0,0,0,0,0,0,0,0,0,0,0,0,0,0,0,0,0,0,0,0,0,0,0,0,0,0,0,0,0,0,0,0,0,0,0,0,0,0,0,0,0,0,0,0,0,0,0,0,0,0,0,0,0,0,0,0,0,0,0,0,0,0,0,0,0,0,0,0,0,0,0,0,0,0,0,0,0,0,0,0,0,0,0,0,0,0,0,0,0,0,0,0,0,0,0,0,0,0,0,0,0,0,0,0,0,0,0,0,0,0,0,0,0,0,0,0,0,0,0,0,0,0,0],"id":10,"left_children":[1,3,5,7,9,11,13,15,17,19,21,23,25,27,29,31,33,35,37,39,41,43,45,47,49,51,53,55,57,59,61,63,65,67,69,71,73,75,77,79,81,83,85,87,89,91,93,95,97,99,101,103,105,107,109,111,113,115,117,119,121,123,125,-1,-1,-1,-1,-1,-1,-1,-1,-1,-1,-1,-1,-1,-1,-1,-1,-1,-1,-1,-1,-1,-1,-1,-1,-1,-1,-1,-1,-1,-1,-1,-1,-1,-1,-1,-1,-1,-1,-1,-1,-1,-1,-1,-1,-1,-1,-1,-1,-1,-1,-1,-1,-1,-1,-1,-1,-1,-1,-1,-1,-1,-1,-1,-1],"loss_changes":[3.8838046E11,2.5702138E10,7.021727E10,2.3825132E10,9.107587E9,7.318946E9,1.9170255E10,3.049377E10,7.7068657E9,7.023526E9,2.0870054E9,4.0122122E9,5.2997734E9,1.5722799E10,3.9172997E9,9.135465E9,1.5233696E10,3.9984947E9,2.0796413E9,2.921581E9,6.8072243E9,8.633797E9,1.6286054E9,2.1248532E9,4.048638E9,3.67036E9,6.802944E8,7.347364E9,1.0823295E10,1.3947341E9,1.8483364E9,3.3675418E9,8.1747973E9,8.1368883E9,5.315364E9,6.96943E9,3.4793E9,5.510404E8,7.028539E9,5.507451E8,3.9483164E9,4.785365E9,4.3527946E9,1.0312749E9,6.025764E8,6.565304E8,2.2366466E8,1.4266716E9,1.6021194E9,6.681164E9,2.2434253E9,1.9965133E9,5.3059584E9,2.2824704E8,2.9765325E8,4.307593E9,9.177633E9,7.360817E9,1.3774541E9,7.437087E8,9.3118976E8,4.676823E8,9.943757E8,0E0,0E0,0E0,0E0,0E0,0E0,0E0,0E0,0E0,0E0,0E0,0E0,0E0,0E0,0E0,0E0,0E0,0E0,0E0,0E0,0E0,0E0,0E0,0E0,0E0,0E0,0E0,0E0,0E0,0E0,0E0,0E0,0E0,0E0,0E0,0E0,0E0,0E0,0E0,0E0,0E0,0E0,0E0,0E0,0E0,0E0,0E0,0E0,0E0,0E0,0E0,0E0,0E0,0E0,0E0,0E0,0E0,0E0,0E0,0E0,0E0,0E0,0E0,0E0],"parents":[2147483647,0,0,1,1,2,2,3,3,4,4,5,5,6,6,7,7,8,8,9,9,10,10,11,11,12,12,13,13,14,14,15,15,16,16,17,17,18,18,19,19,20,20,21,21,22,22,23,23,24,24,25,25,26,26,27,27,28,28,29,29,30,30,31,31,32,32,33,33,34,34,35,35,36,36,37,37,38,38,39,39,40,40,41,41,42,42,43,43,44,44,45,45,46,46,47,47,48,48,49,49,50,50,51,51,52,52,53,53,54,54,55,55,56,56,57,57,58,58,59,59,60,60,61,61,62,62],"right_children":[2,4,6,8,10,12,14,16,18,20,22,24,26,28,30,32,34,36,38,40,42,44,46,48,50,52,54,56,58,60,62,64,66,68,70,72,74,76,78,80,82,84,86,88,90,92,94,96,98,100,102,104,106,108,110,112,114,116,118,120,122,124,126,-1,-1,-1,-1,-1,-1,-1,-1,-1,-1,-1,-1,-1,-1,-1,-1,-1,-1,-1,-1,-1,-1,-1,-1,-1,-1,-1,-1,-1,-1,-1,-1,-1,-1,-1,-1,-1,-1,-1,-1,-1,-1,-1,-1,-1,-1,-1,-1,-1,-1,-1,-1,-1,-1,-1,-1,-1,-1,-1,-1,-1,-1,-1,-1],"split_conditions":[1E0,1E0,1E0,1.94E3,4.8E1,4.4E2,4.8E1,1E0,4.8E1,2.9E2,2.4E1,1E0,1.2E1,4.4E2,5E1,6E0,3E0,1E0,5.1E1,2.55E2,1E0,2.1E1,2.9E1,3E0,1E0,1E0,3E0,1E0,3E1,4.4E2,2.6E2,1E0,4.28E2,6E0,7.76E2,1.058E3,6E0,1E0,2.4E1,2.51E2,2E0,3E2,4E0,3.3E2,2E0,2.5E1,2.9E2,1.7E2,3.2E2,5.24E2,3.1E2,1.032E3,1.404E4,1E0,1.254E4,1.7E2,1E0,1E0,7E0,1E0,1E0,4E1,1E0,-3.773535E1,-4.0074873E0,3.702334E2,-2.665633E1,6.2055298E1,2.6377548E2,-5.3739063E1,7.286413E1,-6.061147E1,7.215461E1,-3.2976772E1,-1.5720941E2,-2.7177626E1,9.305221E0,1.4863976E2,-3.8004444E1,-5.8809265E1,-1.32226E2,-8.0930483E-1,-6.2899517E1,-2.0010078E2,-7.084305E1,-6.09978E1,-3.3924862E1,3.432597E1,-2.9828787E1,1.4897366E2,7.4519424E1,-9.851431E1,-4.0982777E1,8.144076E1,1.1412924E1,1.5713568E2,1.0261269E2,6.550706E1,-1.7436458E2,3.6632187E2,1.4279576E2,1.8119603E2,7.111852E1,9.805044E1,1.6443895E2,6.213099E1,1.4873647E2,1.4662053E2,6.514376E1,1.8392961E2,2.5615924E2,7.387508E1,2.5284071E1,1.4551756E2,5.570051E1,3.0077417E1,7.0205293E0,9.608495E1,5.6395203E1,8.670641E1,1.6270041E2,3.9800346E1,7.859352E1,4.3630805E0,2.1742732E2,9.1772316E1,1.3813873E2],"split_indices":[2,7,1,6,11,6,11,5,11,6,10,5,9,6,11,1,4,5,11,0,5,10,10,4,7,7,10,5,10,6,6,4,0,1,0,0,1,5,10,0,4,6,1,6,1,10,6,6,6,0,6,0,6,15,6,6,7,7,9,5,5,6,5,0,0,0,0,0,0,0,0,0,0,0,0,0,0,0,0,0,0,0,0,0,0,0,0,0,0,0,0,0,0,0,0,0,0,0,0,0,0,0,0,0,0,0,0,0,0,0,0,0,0,0,0,0,0,0,0,0,0,0,0,0,0,0,0],"split_type":[0,0,0,0,0,0,0,0,0,0,0,0,0,0,0,0,0,0,0,0,0,0,0,0,0,0,0,0,0,0,0,0,0,0,0,0,0,0,0,0,0,0,0,0,0,0,0,0,0,0,0,0,0,0,0,0,0,0,0,0,0,0,0,0,0,0,0,0,0,0,0,0,0,0,0,0,0,0,0,0,0,0,0,0,0,0,0,0,0,0,0,0,0,0,0,0,0,0,0,0,0,0,0,0,0,0,0,0,0,0,0,0,0,0,0,0,0,0,0,0,0,0,0,0,0,0,0],"sum_hessian":[5.40164E5,2.98919E5,2.41245E5,1.50068E5,1.48851E5,4.9409E4,1.91836E5,6.2938E4,8.713E4,1.38737E5,1.0114E4,8.767E3,4.0642E4,1.78993E5,1.2843E4,3.9957E4,2.2981E4,8.0924E4,6.206E3,1.8041E4,1.20696E5,5.999E3,4.115E3,5.458E3,3.309E3,3.8514E4,2.128E3,3.1659E4,1.47334E5,7.591E3,5.252E3,3.9438E4,5.19E2,1.7718E4,5.263E3,3.6484E4,4.444E4,4.19E3,2.016E3,4.215E3,1.3826E4,6.085E4,5.9846E4,4.709E3,1.29E3,3.101E3,1.014E3,5.135E3,3.23E2,1.341E3,1.968E3,1.9706E4,1.8808E4,1.05E3,1.078E3,1.989E4,1.1769E4,1.38577E5,8.757E3,1.396E3,6.195E3,6.04E2,4.648E3,2.9566E4,9.872E3,2.72E2,2.47E2,1.7204E4,5.14E2,4.233E3,1.03E3,3.5468E4,1.016E3,4.387E4,5.7E2,1.862E3,2.328E3,1.003E3,1.013E3,3.942E3,2.73E2,1.0434E4,3.392E3,7.24E2,6.0126E4,3.251E4,2.7336E4,7.43E2,3.966E3,8.95E2,3.95E2,6.2E2,2.481E3,1.3E2,8.84E2,1.929E3,3.206E3,2.23E2,1E2,6.55E2,6.86E2,1.219E3,7.49E2,1.8498E4,1.208E3,1.6832E4,1.976E3,9.53E2,9.7E1,8.99E2,1.79E2,7.085E3,1.2805E4,4.813E3,6.956E3,7.1295E4,6.7282E4,4.367E3,4.39E3,8.86E2,5.1E2,3.095E3,3.1E3,2.7E1,5.77E2,2.336E3,2.312E3],"tree_param":{"num_deleted":"0","num_feature":"16","num_nodes":"127","size_leaf_vector":"1"}},{"base_weights":[9.780662E-1,-7.235473E2,8.982878E2,-4.5007266E2,-9.992514E2,1.5810122E3,7.5075555E2,-5.259499E0,-7.7270264E2,-3.9963553E2,-1.0884882E3,1.1812003E3,2.2594788E3,9.8535925E2,5.0157327E2,-5.0854626E2,8.66853E2,-1.0146193E3,-5.733479E2,-1.1431523E3,-1.7700446E2,-1.3245402E3,-8.497403E2,1.3004512E3,-7.858505E2,3.37253E3,1.4855605E3,9.0950195E2,2.1332896E3,3.5456622E2,1.7132885E3,-1.3333266E2,-8.734104E2,1.2770988E3,-5.238101E2,-9.0303503E2,-2.6935303E3,-6.271446E2,1.1012815E2,-1.7223416E3,-8.870967E2,1.1983171E2,-1.0873945E3,-3.846172E3,-1.2941984E3,-9.163641E2,6.741385E1,1.1914087E3,3.0169958E3,3.2674017E2,-3.43049E3,5.1869185E3,1.6477444E3,2.1224766E3,3.986822E2,6.533242E2,1.1825167E3,4.442734E3,1.7623726E3,2.9965396E2,1.3499207E3,1.8521829E3,-1.9384454E3,-5.5784706E1,1.14683695E1,-2.6618382E1,-7.956995E1,-1.9046886E1,7.3904686E1,2.8038822E1,-1.2646826E2,-5.2007076E1,4.2182293E1,-1.1642427E2,-1.7600327E2,-4.0389076E1,-2.3758535E1,1.5939402E1,-2.1545383E1,-3.362199E1,-1.1997289E2,-3.6558453E1,-1.21363014E2,2.1091135E1,-6.725976E1,4.1910526E1,-6.213702E1,-1.7242848E2,-2.258137E2,1.2489156E2,-6.598698E1,-5.759118E0,-4.8768276E1,1.6393805E1,-1.8732027E2,7.57687E1,3.3601482E0,2.5563902E2,9.604346E0,2.994853E1,-5.2876442E1,-1.7367839E2,-1.2913983E2,1.672655E2,3.1143326E2,-4.6731194E1,1.1585115E2,6.8621956E1,1.6853969E2,-3.6592984E0,8.623302E1,3.6231E1,-7.748638E1,1.0364312E2,4.9197014E1,6.5272354E1,7.011422E2,-1.0842429E2,9.615687E1,4.7261653E0,2.525047E1,8.472811E1,4.1217674E1,7.790739E1,1.8798608E2,-3.510938E1,-1.4426408E2],"categories":[],"categories_nodes":[],"categories_segments":[],"categories_sizes":[],"default_left":[0,0,0,0,0,0,0,0,0,0,0,0,0,0,0,0,0,0,0,0,0,0,0,0,0,0,0,0,0,0,0,0,0,0,0,0,0,0,0,0,0,0,0,0,0,0,0,0,0,0,0,0,0,0,0,0,0,0,0,0,0,0,0,0,0,0,0,0,0,0,0,0,0,0,0,0,0,0,0,0,0,0,0,0,0,0,0,0,0,0,0,0,0,0,0,0,0,0,0,0,0,0,0,0,0,0,0,0,0,0,0,0,0,0,0,0,0,0,0,0,0,0,0,0,0,0,0],"id":11,"left_children":[1,3,5,7,9,11,13,15,17,19,21,23,25,27,29,31,33,35,37,39,41,43,45,47,49,51,53,55,57,59,61,63,65,67,69,71,73,75,77,79,81,83,85,87,89,91,93,95,97,99,101,103,105,107,109,111,113,115,117,119,121,123,125,-1,-1,-1,-1,-1,-1,-1,-1,-1,-1,-1,-1,-1,-1,-1,-1,-1,-1,-1,-1,-1,-1,-1,-1,-1,-1,-1,-1,-1,-1,-1,-1,-1,-1,-1,-1,-1,-1,-1,-1,-1,-1,-1,-1,-1,-1,-1,-1,-1,-1,-1,-1,-1,-1,-1,-1,-1,-1,-1,-1,-1,-1,-1,-1],"loss_changes":[3.512033E11,2.2534586E10,2.4306401E10,2.1533538E10,7.963296E9,1.162947E10,1.1600601E10,2.7688124E10,4.1936937E9,3.191546E9,7.3000223E9,6.3307244E9,1.369056E10,8.898658E9,1.7141979E10,5.4758267E9,1.3169834E10,7.3579766E9,1.7532385E9,6.573896E8,4.0104433E9,4.979081E9,3.9358505E9,4.7585444E9,4.541246E9,2.0395344E10,6.492461E9,6.705029E9,5.4188073E9,4.6905477E9,5.284612E9,7.0268984E9,4.9647657E9,5.940867E9,1.1440785E10,8.823847E9,7.304192E8,1.213055E9,3.930031E8,9.6592896E8,7.386204E8,4.9521864E9,1.092584E9,1.9064525E8,6.237602E9,2.8384625E9,4.3352397E9,8.713103E9,8.992108E9,4.102586E8,7.716864E6,6.074196E9,5.78168E9,5.5325614E9,2.1693824E9,7.7708227E9,8.203858E9,2.6310355E10,3.4545828E9,3.4263322E9,8.113439E8,5.6203633E9,4.4511782E8,0E0,0E0,0E0,0E0,0E0,0E0,0E0,0E0,0E0,0E0,0E0,0E0,0E0,0E0,0E0,0E0,0E0,0E0,0E0,0E0,0E0,0E0,0E0,0E0,0E0,0E0,0E0,0E0,0E0,0E0,0E0,0E0,0E0,0E0,0E0,0E0,0E0,0E0,0E0,0E0,0E0,0E0,0E0,0E0,0E0,0E0,0E0,0E0,0E0,0E0,0E0,0E0,0E0,0E0,0E0,0E0,0E0,0E0,0E0,0E0,0E0,0E0,0E0,0E0],"parents":[2147483647,0,0,1,1,2,2,3,3,4,4,5,5,6,6,7,7,8,8,9,9,10,10,11,11,12,12,13,13,14,14,15,15,16,16,17,17,18,18,19,19,20,20,21,21,22,22,23,23,24,24,25,25,26,26,27,27,28,28,29,29,30,30,31,31,32,32,33,33,34,34,35,35,36,36,37,37,38,38,39,39,40,40,41,41,42,42,43,43,44,44,45,45,46,46,47,47,48,48,49,49,50,50,51,51,52,52,53,53,54,54,55,55,56,56,57,57,58,58,59,59,60,60,61,61,62,62],"right_children":[2,4,6,8,10,12,14,16,18,20,22,24,26,28,30,32,34,36,38,40,42,44,46,48,50,52,54,56,58,60,62,64,66,68,70,72,74,76,78,80,82,84,86,88,90,92,94,96,98,100,102,104,106,108,110,112,114,116,118,120,122,124,126,-1,-1,-1,-1,-1,-1,-1,-1,-1,-1,-1,-1,-1,-1,-1,-1,-1,-1,-1,-1,-1,-1,-1,-1,-1,-1,-1,-1,-1,-1,-1,-1,-1,-1,-1,-1,-1,-1,-1,-1,-1,-1,-1,-1,-1,-1,-1,-1,-1,-1,-1,-1,-1,-1,-1,-1,-1,-1,-1,-1,-1,-1,-1,-1],"split_conditions":[1E0,1E0,4.4E2,1.94E3,2.9E2,1E0,1E0,1E0,1E0,2.55E2,1E0,3E0,1E0,1.032E3,1.404E4,6.9E1,3E0,2.233E4,2.9E1,4.1E1,2E0,3E2,1.527E4,4E2,3.2E2,5.24E2,3.1E2,1E0,9E2,3E1,2.613E4,2.6E2,8.5E2,2.04E2,9.3E1,9.93E2,1E0,5.7E1,3.1E1,2.8E1,2.51E2,1.028E3,3.89E2,1.05E2,3.1E2,5.9E1,2.613E4,2.9E2,5.15E2,1.067E3,3E1,1.5E2,1.1E2,6.58E2,3.8E2,2.715E4,1.61E3,1.11E3,9.2E2,2E0,1E0,2.064E4,2.6E2,-5.5784706E1,1.14683695E1,-2.6618382E1,-7.956995E1,-1.9046886E1,7.3904686E1,2.8038822E1,-1.2646826E2,-5.2007076E1,4.2182293E1,-1.1642427E2,-1.7600327E2,-4.0389076E1,-2.3758535E1,1.5939402E1,-2.1545383E1,-3.362199E1,-1.1997289E2,-3.6558453E1,-1.21363014E2,2.1091135E1,-6.725976E1,4.1910526E1,-6.213702E1,-1.7242848E2,-2.258137E2,1.2489156E2,-6.598698E1,-5.759118E0,-4.8768276E1,1.6393805E1,-1.8732027E2,7.57687E1,3.3601482E0,2.5563902E2,9.604346E0,2.994853E1,-5.2876442E1,-1.7367839E2,-1.2913983E2,1.672655E2,3.1143326E2,-4.6731194E1,1.1585115E2,6.8621956E1,1.6853969E2,-3.6592984E0,8.623302E1,3.6231E1,-7.748638E1,1.0364312E2,4.9197014E1,6.5272354E1,7.011422E2,-1.0842429E2,9.615687E1,4.7261653E0,2.525047E1,8.472811E1,4.1217674E1,7.790739E1,1.8798608E2,-3.510938E1,-1.4426408E2],"split_indices":[2,7,6,6,6,5,7,5,5,0,5,4,7,0,6,14,4,6,10,0,4,6,6,6,6,0,6,5,6,10,6,0,6,0,14,0,12,14,10,0,0,0,0,14,6,0,6,6,0,0,10,6,6,0,6,6,6,0,6,5,15,6,0,0,0,0,0,0,0,0,0,0,0,0,0,0,0,0,0,0,0,0,0,0,0,0,0,0,0,0,0,0,0,0,0,0,0,0,0,0,0,0,0,0,0,0,0,0,0,0,0,0,0,0,0,0,0,0,0,0,0,0,0,0,0,0,0],"split_type":[0,0,0,0,0,0,0,0,0,0,0,0,0,0,0,0,0,0,0,0,0,0,0,0,0,0,0,0,0,0,0,0,0,0,0,0,0,0,0,0,0,0,0,0,0,0,0,0,0,0,0,0,0,0,0,0,0,0,0,0,0,0,0,0,0,0,0,0,0,0,0,0,0,0,0,0,0,0,0,0,0,0,0,0,0,0,0,0,0,0,0,0,0,0,0,0,0,0,0,0,0,0,0,0,0,0,0,0,0,0,0,0,0,0,0,0,0,0,0,0,0,0,0,0,0,0,0],"sum_hessian":[5.40208E5,2.9888E5,2.41328E5,1.50048E5,1.48832E5,4.2881E4,1.98447E5,6.308E4,8.6968E4,1.9281E4,1.29551E5,2.6983E4,1.5898E4,1.02212E5,9.6235E4,3.9998E4,2.3082E4,3.9288E4,4.768E4,4.442E3,1.4839E4,6.5141E4,6.441E4,2.5441E4,1.542E3,6.519E3,9.379E3,9.5878E4,6.334E3,8.5824E4,1.0411E4,1.972E4,2.0278E4,1.7824E4,5.258E3,3.6841E4,2.447E3,4.4201E4,3.479E3,1.36E3,3.082E3,1.1191E4,3.648E3,7.73E2,6.4368E4,6.0048E4,4.362E3,2.3923E4,1.518E3,1.086E3,4.56E2,3.176E3,3.343E3,5.913E3,3.466E3,4.9466E4,4.6412E4,8.75E2,5.459E3,8.1338E4,4.486E3,1.003E4,3.81E2,5.317E3,1.4403E4,1.3749E4,6.529E3,1.927E3,1.5897E4,3.413E3,1.845E3,3.416E4,2.681E3,1.7E3,7.47E2,2.0194E4,2.4007E4,2.511E3,9.68E2,5.34E2,8.26E2,2.8E3,2.82E2,9.279E3,1.912E3,2.72E2,3.376E3,4.89E2,2.84E2,4.3E2,6.3938E4,4.119E3,5.5929E4,4.084E3,2.78E2,1.8571E4,5.352E3,8.71E2,6.47E2,9.08E2,1.78E2,4.31E2,2.5E1,1.149E3,2.027E3,6.88E2,2.655E3,3.695E3,2.218E3,2.557E3,9.09E2,4.7916E4,1.55E3,8.462E3,3.795E4,6.6E2,2.15E2,2.14E2,5.245E3,4.0692E4,4.0646E4,2.708E3,1.778E3,8.692E3,1.338E3,1.66E2,2.15E2],"tree_param":{"num_deleted":"0","num_feature":"16","num_nodes":"127","size_leaf_vector":"1"}},{"base_weights":[-8.130701E-1,-6.8629095E2,8.491639E2,-4.2314728E2,-9.517761E2,7.7415753E2,2.163258E3,7.329653E0,-7.346214E2,-1.00813153E3,-8.383689E1,1.38079E3,6.437034E2,1.63406E3,2.6849468E3,-7.1658167E2,2.0985258E2,-8.035784E2,2.4404692E2,-5.2264343E2,-1.0950929E3,9.5831215E1,-2.4824014E3,1.6020399E3,6.515795E2,5.4549475E2,1.2380844E3,1.8054255E3,2.0957553E2,4.0027568E3,2.396957E3,2.2160092E2,-1.081878E3,4.0948516E3,5.599492E1,-6.8397235E2,-1.1309626E3,4.5029926E2,-2.5105474E3,-1.3042358E3,-3.0229697E2,-1.3395864E3,-9.680226E2,-4.162543E2,6.396254E2,-2.3579702E3,-2.9156858E3,1.5025436E3,5.159349E3,4.045157E2,3.1544863E3,7.0150525E2,1.403322E2,9.8785944E2,1.6185847E3,2.719732E3,1.5945715E3,1.2738232E3,3.2920406E0,5.403777E3,3.4234382E3,3.2493926E3,2.0485388E3,-4.304772E1,6.630494E1,-6.7986305E1,-6.471987E-1,8.941754E1,3.7502573E2,4.9413722E-2,1.533117E2,-3.7078197E1,4.945638E0,-9.981231E1,-5.152024E1,-3.7737966E0,7.2537094E1,-1.1525154E2,-1.5060622E2,-9.264064E1,-3.1647943E1,-1.4131564E0,-5.5676235E1,-4.9944E1,-7.595913E1,3.9496674E1,-4.9379677E1,3.0355253E1,-3.02115E1,1.0584222E2,-1.2973732E1,-1.956294E1,-1.1885809E2,-1.6207697E2,-1.283562E2,-4.661065E1,7.966799E1,4.019105E2,1.0130335E2,1.0281936E2,5.9484186E0,2.4636131E2,7.1606384E1,4.6052532E1,2.33719E1,1.6500853E1,-2.897617E0,7.032716E0,5.4774014E1,1.0369503E2,4.957031E1,1.7070139E2,1.0468145E2,9.781474E1,5.900578E1,2.5397877E1,9.830878E1,2.7576702E0,-6.620185E1,3.393143E2,2.272572E2,1.9627074E2,1.294078E2,1.5101286E2,2.1974544E2,8.8600746E1,1.4232446E2],"categories":[],"categories_nodes":[],"categories_segments":[],"categories_sizes":[],"default_left":[0,0,0,0,0,0,0,0,0,0,0,0,0,0,0,0,0,0,0,0,0,0,0,0,0,0,0,0,0,0,0,0,0,0,0,0,0,0,0,0,0,0,0,0,0,0,0,0,0,0,0,0,0,0,0,0,0,0,0,0,0,0,0,0,0,0,0,0,0,0,0,0,0,0,0,0,0,0,0,0,0,0,0,0,0,0,0,0,0,0,0,0,0,0,0,0,0,0,0,0,0,0,0,0,0,0,0,0,0,0,0,0,0,0,0,0,0,0,0,0,0,0,0,0,0,0,0],"id":12,"left_children":[1,3,5,7,9,11,13,15,17,19,21,23,25,27,29,31,33,35,37,39,41,43,45,47,49,51,53,55,57,59,61,63,65,67,69,71,73,75,77,79,81,83,85,87,89,91,93,95,97,99,101,103,105,107,109,111,113,115,117,119,121,123,125,-1,-1,-1,-1,-1,-1,-1,-1,-1,-1,-1,-1,-1,-1,-1,-1,-1,-1,-1,-1,-1,-1,-1,-1,-1,-1,-1,-1,-1,-1,-1,-1,-1,-1,-1,-1,-1,-1,-1,-1,-1,-1,-1,-1,-1,-1,-1,-1,-1,-1,-1,-1,-1,-1,-1,-1,-1,-1,-1,-1,-1,-1,-1,-1],"loss_changes":[3.1495094E11,2.0904378E10,2.3784423E10,2.015018E10,7.285711E9,1.806576E10,3.5928883E9,9.24969E9,5.884502E9,5.904646E9,3.9145162E9,6.5176453E9,1.0967146E10,1.5792435E9,2.4800297E9,4.726961E9,2.9467599E10,3.188732E9,3.2622623E9,3.659305E9,3.6840735E9,2.353609E9,2.725248E7,1.0963673E10,5.815804E9,1.0192454E10,2.5350062E9,1.1091907E9,1.5279336E8,9.3517414E8,1.5930081E9,4.623641E9,2.948313E9,1.4738584E10,7.852282E9,2.6900419E9,1.8942628E9,2.8095176E9,3.428992E7,1.7196462E9,3.6853215E9,2.480636E9,2.686378E9,8.377391E8,5.4447073E9,1.7828864E7,7.238912E6,6.669439E9,7.5878113E9,4.0388157E9,2.5729777E9,5.982253E9,1.6861455E9,1.465514E9,3.0157885E9,4.6276352E8,7.017083E8,5.891941E7,4.0273892E7,3.751332E8,3.3952973E8,3.964549E8,8.391721E8,0E0,0E0,0E0,0E0,0E0,0E0,0E0,0E0,0E0,0E0,0E0,0E0,0E0,0E0,0E0,0E0,0E0,0E0,0E0,0E0,0E0,0E0,0E0,0E0,0E0,0E0,0E0,0E0,0E0,0E0,0E0,0E0,0E0,0E0,0E0,0E0,0E0,0E0,0E0,0E0,0E0,0E0,0E0,0E0,0E0,0E0,0E0,0E0,0E0,0E0,0E0,0E0,0E0,0E0,0E0,0E0,0E0,0E0,0E0,0E0,0E0,0E0,0E0,0E0],"parents":[2147483647,0,0,1,1,2,2,3,3,4,4,5,5,6,6,7,7,8,8,9,9,10,10,11,11,12,12,13,13,14,14,15,15,16,16,17,17,18,18,19,19,20,20,21,21,22,22,23,23,24,24,25,25,26,26,27,27,28,28,29,29,30,30,31,31,32,32,33,33,34,34,35,35,36,36,37,37,38,38,39,39,40,40,41,41,42,42,43,43,44,44,45,45,46,46,47,47,48,48,49,49,50,50,51,51,52,52,53,53,54,54,55,55,56,56,57,57,58,58,59,59,60,60,61,61,62,62],"right_children":[2,4,6,8,10,12,14,16,18,20,22,24,26,28,30,32,34,36,38,40,42,44,46,48,50,52,54,56,58,60,62,64,66,68,70,72,74,76,78,80,82,84,86,88,90,92,94,96,98,100,102,104,106,108,110,112,114,116,118,120,122,124,126,-1,-1,-1,-1,-1,-1,-1,-1,-1,-1,-1,-1,-1,-1,-1,-1,-1,-1,-1,-1,-1,-1,-1,-1,-1,-1,-1,-1,-1,-1,-1,-1,-1,-1,-1,-1,-1,-1,-1,-1,-1,-1,-1,-1,-1,-1,-1,-1,-1,-1,-1,-1,-1,-1,-1,-1,-1,-1,-1,-1,-1,-1,-1,-1],"split_conditions":[1E0,1E0,1.2E1,1.94E3,1.2E1,4.4E2,7E0,2.43E2,1.2E1,3.3E2,3.1E1,2E0,2.7E1,6E0,4.4E2,4.6E2,2.64E2,1.43E4,3.1E1,2.17E2,1.61E3,1.5E1,1E0,1E0,4.2E2,1.9E1,3E1,4.4E2,3.7E2,1.7E1,1.7E1,3.4E2,1.67E3,1E0,1.11E3,1.028E3,1.527E4,1E0,1.317E4,1.56E2,2E0,5E1,1.69E3,3.3E2,2.4E1,7E1,2.2E3,4E1,1.6E2,8E1,5.9E1,1E0,1E0,2E0,7E0,5.45E2,1E0,8.8E1,2.613E4,2.014E3,2.014E3,1.254E4,8.4E3,-4.304772E1,6.630494E1,-6.7986305E1,-6.471987E-1,8.941754E1,3.7502573E2,4.9413722E-2,1.533117E2,-3.7078197E1,4.945638E0,-9.981231E1,-5.152024E1,-3.7737966E0,7.2537094E1,-1.1525154E2,-1.5060622E2,-9.264064E1,-3.1647943E1,-1.4131564E0,-5.5676235E1,-4.9944E1,-7.595913E1,3.9496674E1,-4.9379677E1,3.0355253E1,-3.02115E1,1.0584222E2,-1.2973732E1,-1.956294E1,-1.1885809E2,-1.6207697E2,-1.283562E2,-4.661065E1,7.966799E1,4.019105E2,1.0130335E2,1.0281936E2,5.9484186E0,2.4636131E2,7.1606384E1,4.6052532E1,2.33719E1,1.6500853E1,-2.897617E0,7.032716E0,5.4774014E1,1.0369503E2,4.957031E1,1.7070139E2,1.0468145E2,9.781474E1,5.900578E1,2.5397877E1,9.830878E1,2.7576702E0,-6.620185E1,3.393143E2,2.272572E2,1.9627074E2,1.294078E2,1.5101286E2,2.1974544E2,8.8600746E1,1.4232446E2],"split_indices":[2,7,9,6,9,6,10,0,9,6,10,4,10,10,6,6,0,6,10,0,6,10,15,4,6,10,10,6,6,10,10,6,6,4,0,0,6,3,6,14,4,14,6,6,10,6,6,6,6,6,0,7,7,9,9,0,7,14,6,8,8,6,6,0,0,0,0,0,0,0,0,0,0,0,0,0,0,0,0,0,0,0,0,0,0,0,0,0,0,0,0,0,0,0,0,0,0,0,0,0,0,0,0,0,0,0,0,0,0,0,0,0,0,0,0,0,0,0,0,0,0,0,0,0,0,0,0],"split_type":[0,0,0,0,0,0,0,0,0,0,0,0,0,0,0,0,0,0,0,0,0,0,0,0,0,0,0,0,0,0,0,0,0,0,0,0,0,0,0,0,0,0,0,0,0,0,0,0,0,0,0,0,0,0,0,0,0,0,0,0,0,0,0,0,0,0,0,0,0,0,0,0,0,0,0,0,0,0,0,0,0,0,0,0,0,0,0,0,0,0,0,0,0,0,0,0,0,0,0,0,0,0,0,0,0,0,0,0,0,0,0,0,0,0,0,0,0,0,0,0,0,0,0,0,0,0,0],"sum_hessian":[5.40556E5,2.99234E5,2.41322E5,1.50281E5,1.48953E5,2.28293E5,1.3029E4,6.3089E4,8.7192E4,1.39871E5,9.082E3,4.0403E4,1.8789E5,6.47E3,6.559E3,1.3791E4,4.9298E4,8.1453E4,5.739E3,2.1249E4,1.18622E5,8.45E3,6.32E2,3.0997E4,9.406E3,1.61249E5,2.6641E4,5.775E3,6.95E2,1.174E3,5.385E3,3.865E3,9.926E3,1.877E3,4.7421E4,5.966E4,2.1793E4,5.34E3,3.99E2,4.672E3,1.6577E4,4.0564E4,7.8058E4,4.352E3,4.098E3,4.96E2,1.36E2,3.0155E4,8.42E2,8.562E3,8.44E2,1.1642E5,4.4829E4,1.6074E4,1.0567E4,1.08E3,4.695E3,1.12E2,5.83E2,3.41E2,8.33E2,1.56E3,3.825E3,1.952E3,1.913E3,7.878E3,2.048E3,1.12E3,7.57E2,4.6571E4,8.5E2,5.5572E4,4.088E3,2.267E3,1.9526E4,3.501E3,1.839E3,2.87E2,1.12E2,2.57E3,2.102E3,1.2392E4,4.185E3,1.4004E4,2.656E4,8.59E2,7.7199E4,6.75E2,3.677E3,1.55E3,2.548E3,5E0,4.91E2,6.6E1,7E1,1.084E3,2.9071E4,4.38E2,4.04E2,1.261E3,7.301E3,4.15E2,4.29E2,6.0072E4,5.6348E4,2.2911E4,2.1918E4,1.812E3,1.4262E4,6.121E3,4.446E3,5.1E2,5.7E2,2.505E3,2.19E3,5.4E1,5.8E1,5.62E2,2.1E1,1.28E2,2.13E2,5.18E2,3.15E2,1.303E3,2.57E2,2.843E3,9.82E2],"tree_param":{"num_deleted":"0","num_feature":"16","num_nodes":"127","size_leaf_vector":"1"}},{"base_weights":[-3.7799028E-1,-6.5410345E2,8.092077E2,-7.245096E2,2.923165E2,1.8139974E3,5.51015E2,-9.5486084E2,-4.6898352E2,1.2988035E3,1.0416431E2,1.7351313E3,3.2518267E3,4.7180203E2,1.6477158E3,-9.6865497E2,2.395984E3,-1.7928296E2,-7.5703406E2,-2.1370334E2,3.5957812E3,-2.872962E2,5.312935E2,1.9950371E3,1.4748287E3,2.898135E3,4.1969385E3,4.048355E2,1.5321344E3,1.2278127E3,2.2395457E3,-7.880618E2,-1.1511915E3,8.419697E3,3.8721884E2,1.8532913E3,-2.3322827E2,-9.897375E2,-4.8093332E2,-5.424574E2,1.4424423E2,2.8010557E3,4.4525435E3,-3.1177542E2,4.2397295E3,2.6429203E1,9.5221155E2,1.6974408E3,2.3360757E3,1.4045435E3,2.8857366E3,2.478511E3,3.3709756E3,3.411906E3,4.4081826E3,7.9569775E2,2.7146118E2,1.9168602E3,1.1574722E3,8.2893445E2,1.6636461E3,1.8440913E3,2.6652239E3,-7.793932E1,-3.591731E1,-5.107916E1,-6.928119E1,1.1138955E2,6.763641E2,1.1684981E2,-3.8376705E1,1.3764304E2,2.3991644E1,-1.4372518E1,6.038453E1,-4.754143E1,-1.02904076E2,-1.999774E1,-7.766885E1,-1.2832252E1,-4.2699703E1,2.4061605E1,-1.1263261E1,1.6678514E2,1.0735905E2,2.6701654E2,1.7361787E2,-3.5376103E0,-3.130931E1,5.7391766E2,6.534693E1,2.4096388E1,-2.822743E1,6.888063E1,2.5284323E1,1.9710337E1,8.987199E1,1.1381884E2,2.639349E2,5.8600582E1,7.8380775E1,1.6198586E2,6.1617805E1,8.904312E1,1.3384117E2,1.821191E2,7.5307434E1,1.8477563E2,4.7117603E1,3.627639E2,2.1513867E2,5.2430935E1,2.7231089E1,6.116574E1,9.960838E0,7.85049E1,1.1543186E2,4.053761E1,7.8282196E1,1.2364978E1,4.9540844E1,1.08089676E2,5.752981E1,1.2643235E2,8.034311E1,1.4393513E2,5.681545E1],"categories":[],"categories_nodes":[],"categories_segments":[],"categories_sizes":[],"default_left":[0,0,0,0,0,0,0,0,0,0,0,0,0,0,0,0,0,0,0,0,0,0,0,0,0,0,0,0,0,0,0,0,0,0,0,0,0,0,0,0,0,0,0,0,0,0,0,0,0,0,0,0,0,0,0,0,0,0,0,0,0,0,0,0,0,0,0,0,0,0,0,0,0,0,0,0,0,0,0,0,0,0,0,0,0,0,0,0,0,0,0,0,0,0,0,0,0,0,0,0,0,0,0,0,0,0,0,0,0,0,0,0,0,0,0,0,0,0,0,0,0,0,0,0,0,0,0],"id":13,"left_children":[1,3,5,7,9,11,13,15,17,19,21,23,25,27,29,31,33,35,37,39,41,43,45,47,49,51,53,55,57,59,61,63,65,67,69,71,73,75,77,79,81,83,85,87,89,91,93,95,97,99,101,103,105,107,109,111,113,115,117,119,121,123,125,-1,-1,-1,-1,-1,-1,-1,-1,-1,-1,-1,-1,-1,-1,-1,-1,-1,-1,-1,-1,-1,-1,-1,-1,-1,-1,-1,-1,-1,-1,-1,-1,-1,-1,-1,-1,-1,-1,-1,-1,-1,-1,-1,-1,-1,-1,-1,-1,-1,-1,-1,-1,-1,-1,-1,-1,-1,-1,-1,-1,-1,-1,-1,-1],"loss_changes":[2.858753E11,1.9913327E10,6.260215E10,1.6371778E10,3.918554E9,5.5882875E9,1.6677175E10,6.7637E9,1.1004373E10,1.1323169E10,2.9153582E9,3.1611126E9,8.44927E8,1.2713144E10,3.2109978E9,4.801487E9,7.256875E9,7.2096686E9,4.2479657E9,2.3143066E8,8.686008E8,1.00954464E9,1.7718541E9,2.3708385E9,2.3134618E9,3.624827E8,1.0038067E8,8.779424E9,1.530878E9,1.3141012E9,8.983777E8,3.9338557E9,2.199896E9,4.7137147E9,1.01722515E9,2.0990648E9,5.00455E9,1.4895432E9,2.625918E9,9.10479E7,1.1740642E8,2.284631E8,5.218468E8,6.857673E8,1.02523757E9,1.0210387E9,8.6301645E8,1.6281846E9,1.9029729E9,8.423588E8,6.44481E8,1.3275494E8,4.378798E8,1.0297549E8,1.3234176E8,2.7203154E9,8.634649E9,7.0906266E8,7.616722E8,3.719552E8,9.2141466E8,4.4821094E8,8.394711E8,0E0,0E0,0E0,0E0,0E0,0E0,0E0,0E0,0E0,0E0,0E0,0E0,0E0,0E0,0E0,0E0,0E0,0E0,0E0,0E0,0E0,0E0,0E0,0E0,0E0,0E0,0E0,0E0,0E0,0E0,0E0,0E0,0E0,0E0,0E0,0E0,0E0,0E0,0E0,0E0,0E0,0E0,0E0,0E0,0E0,0E0,0E0,0E0,0E0,0E0,0E0,0E0,0E0,0E0,0E0,0E0,0E0,0E0,0E0,0E0,0E0,0E0,0E0,0E0],"parents":[2147483647,0,0,1,1,2,2,3,3,4,4,5,5,6,6,7,7,8,8,9,9,10,10,11,11,12,12,13,13,14,14,15,15,16,16,17,17,18,18,19,19,20,20,21,21,22,22,23,23,24,24,25,25,26,26,27,27,28,28,29,29,30,30,31,31,32,32,33,33,34,34,35,35,36,36,37,37,38,38,39,39,40,40,41,41,42,42,43,43,44,44,45,45,46,46,47,47,48,48,49,49,50,50,51,51,52,52,53,53,54,54,55,55,56,56,57,57,58,58,59,59,60,60,61,61,62,62],"right_children":[2,4,6,8,10,12,14,16,18,20,22,24,26,28,30,32,34,36,38,40,42,44,46,48,50,52,54,56,58,60,62,64,66,68,70,72,74,76,78,80,82,84,86,88,90,92,94,96,98,100,102,104,106,108,110,112,114,116,118,120,122,124,126,-1,-1,-1,-1,-1,-1,-1,-1,-1,-1,-1,-1,-1,-1,-1,-1,-1,-1,-1,-1,-1,-1,-1,-1,-1,-1,-1,-1,-1,-1,-1,-1,-1,-1,-1,-1,-1,-1,-1,-1,-1,-1,-1,-1,-1,-1,-1,-1,-1,-1,-1,-1,-1,-1,-1,-1,-1,-1,-1,-1,-1,-1,-1,-1],"split_conditions":[1E0,4.8E1,1E0,1E0,1E0,1.2E1,4.8E1,6E0,1E0,1E0,1E0,1E0,1.6E1,3E1,5E1,1E0,2.64E2,2E0,4E0,1E0,2E0,6E0,4E0,1E0,3E1,2E0,2.43E2,2E0,7E0,1E0,1E0,8.9E1,7.33E2,8.9E1,4.28E2,7.37E2,1.071E3,1.076E3,1.054E3,1E0,1E0,1E0,1E0,2.4E1,2.64E2,2.4E1,1E0,8.4E1,1.101E3,2.014E3,1E0,2.3E2,1E0,2.17E2,2.72E2,1E0,3E0,1E0,2E0,2.3E2,1E0,2E0,1E0,-7.793932E1,-3.591731E1,-5.107916E1,-6.928119E1,1.1138955E2,6.763641E2,1.1684981E2,-3.8376705E1,1.3764304E2,2.3991644E1,-1.4372518E1,6.038453E1,-4.754143E1,-1.02904076E2,-1.999774E1,-7.766885E1,-1.2832252E1,-4.2699703E1,2.4061605E1,-1.1263261E1,1.6678514E2,1.0735905E2,2.6701654E2,1.7361787E2,-3.5376103E0,-3.130931E1,5.7391766E2,6.534693E1,2.4096388E1,-2.822743E1,6.888063E1,2.5284323E1,1.9710337E1,8.987199E1,1.1381884E2,2.639349E2,5.8600582E1,7.8380775E1,1.6198586E2,6.1617805E1,8.904312E1,1.3384117E2,1.821191E2,7.5307434E1,1.8477563E2,4.7117603E1,3.627639E2,2.1513867E2,5.2430935E1,2.7231089E1,6.116574E1,9.960838E0,7.85049E1,1.1543186E2,4.053761E1,7.8282196E1,1.2364978E1,4.9540844E1,1.08089676E2,5.752981E1,1.2643235E2,8.034311E1,1.4393513E2,5.681545E1],"split_indices":[2,11,1,5,1,9,11,1,7,3,5,7,10,10,11,7,0,5,1,5,5,1,1,5,10,5,0,1,9,5,5,0,0,0,0,0,0,0,0,7,7,7,7,10,0,10,7,0,0,8,15,0,15,0,0,7,10,5,5,0,7,1,15,0,0,0,0,0,0,0,0,0,0,0,0,0,0,0,0,0,0,0,0,0,0,0,0,0,0,0,0,0,0,0,0,0,0,0,0,0,0,0,0,0,0,0,0,0,0,0,0,0,0,0,0,0,0,0,0,0,0,0,0,0,0,0,0],"split_type":[0,0,0,0,0,0,0,0,0,0,0,0,0,0,0,0,0,0,0,0,0,0,0,0,0,0,0,0,0,0,0,0,0,0,0,0,0,0,0,0,0,0,0,0,0,0,0,0,0,0,0,0,0,0,0,0,0,0,0,0,0,0,0,0,0,0,0,0,0,0,0,0,0,0,0,0,0,0,0,0,0,0,0,0,0,0,0,0,0,0,0,0,0,0,0,0,0,0,0,0,0,0,0,0,0,0,0,0,0,0,0,0,0,0,0,0,0,0,0,0,0,0,0,0,0,0,0],"sum_hessian":[5.40153E5,2.98843E5,2.4131E5,2.78151E5,2.0692E4,4.933E4,1.9198E5,1.4628E5,1.31871E5,3.258E3,1.7434E4,4.6767E4,2.563E3,1.79049E5,1.2931E4,1.45681E5,5.99E2,6.5748E4,6.6123E4,1.965E3,1.293E3,9.097E3,8.337E3,2.3398E4,2.3369E4,1.868E3,6.95E2,1.68414E5,1.0635E4,7.566E3,5.365E3,7.3233E4,7.2448E4,1.49E2,4.5E2,1.699E3,6.4049E4,3.588E4,3.0243E4,1.024E3,9.41E2,6.73E2,6.2E2,9.049E3,4.8E1,3.791E3,4.546E3,1.2498E4,1.09E4,2.2262E4,1.107E3,9.93E2,8.75E2,1.51E2,5.44E2,4.2846E4,1.25568E5,5.245E3,5.39E3,3.952E3,3.614E3,2.784E3,2.581E3,6.073E3,6.716E4,4.6658E4,2.579E4,6.8E1,8.1E1,1.67E2,2.83E2,1.026E3,6.73E2,6.1727E4,2.322E3,3.4621E4,1.259E3,2.8121E4,2.122E3,5.35E2,4.89E2,4.92E2,4.49E2,3.68E2,3.05E2,3.23E2,2.97E2,5.123E3,3.926E3,1.3E1,3.5E1,2.141E3,1.65E3,2.327E3,2.219E3,8.91E2,1.1607E4,1.0685E4,2.15E2,9.18E3,1.3082E4,9.11E2,1.96E2,2.22E2,7.71E2,7.63E2,1.12E2,1.35E2,1.6E1,1.7E1,5.27E2,2.1343E4,2.1503E4,8.857E3,1.16711E5,2.785E3,2.46E3,2.916E3,2.474E3,8.61E2,3.091E3,1.832E3,1.782E3,7.14E2,2.07E3,2.264E3,3.17E2],"tree_param":{"num_deleted":"0","num_feature":"16","num_nodes":"127","size_leaf_vector":"1"}},{"base_weights":[9.950846E-1,-6.2045886E2,7.7192084E2,-8.5496716E2,-3.6058673E2,1.3914857E3,6.3846356E2,-8.286598E2,-2.3702937E3,4.7490466E2,-4.7274237E2,1.01014905E3,2.0310865E3,5.6909845E2,1.6145826E3,-8.827909E2,-9.3722626E1,